svm_type c_svc
kernel_type rbf
gamma 1
nr_class 2
total_sv 535
rho 0.045724341852448121
label 1 0
probA -0.40546825292074412
probB -0.055910194714836436
nr_sv 276 259
SV
1 1:0.73010783 2:-0.3589415 3:0.20668225 4:-0.019784049 5:0.14907294 6:-0.17635959 7:0.032773413 8:-0.23013238 9:0.09013172 10:-0.25195128 11:0.037676115 12:-0.13267732 13:0.037619624 14:-0.017514113 15:0.087547803 16:-0.031206356 17:0.019784538 18:-0.027878942 19:0.086996209 20:-0.00043756926 21:0.033252891 22:-0.079814915 23:0.018060135 24:-0.059544092 25:0.033842017 26:-0.055396395 27:0.032953723 28:-0.083794309 29:0.0046143427 30:-0.016793632 31:0.014093374 32:-0.0020107653 33:0.063209989 34:-0.026965561 35:0.011543945 36:-0.018250333 37:0.031810434 38:-0.026667256 39:0.032144909 40:-0.042070433 41:0.013111758 42:-0.055468707 43:0.039162155 44:-0.0029103488 45:0.023772172 46:-0.0014636221 47:0.010576939 48:-0.0047913112 49:0.037292528 50:-0.0048344755 51:0.029670055 52:-0.033740106 53:0.018586122 54:-0.034871741 55:0.016018791 56:-0.011749818 57:0.0034353233 58:-0.015979358 59:0.010977801 60:-0.051977489 61:0.01254967 62:-0.021232779 63:0.0019543232 64:-0.018085915 65:0.01995216 66:-0.0084531442 67:0.04000316 68:-0.014399025 69:0.00064577127 70:-0.024928329 71:0.0062947444 72:-0.036760875 73:0.021351183 74:-0.016261006 75:0.017825966 76:-0.0072830306 77:0.0084540736 78:-0.019396434 79:0.00028651013 80:-0.010806859 81:0.017204493 82:-0.0014618225 83:0.014144369 84:-0.024672569 85:0.027332164 86:-0.017546597 87:0.010926813 88:-0.00096244505 89:0.030905393 90:-0.011809162 91:0.020875278 92:-0.0064298514 93:0.011262491 94:-0.037521629 95:0.031451438 96:-0.011938952 97:0.00726976 98:-0.022024135 99:0.016915795 100:-0.027482465 101:0.0035208589 102:-0.0030619277 103:0.0060803993 104:-0.012738622 105:0.019661159 106:-0.0028730111 107:0.016022282 108:-0.022346908 109:0.0093824283 110:-0.0061541698 111:0.0066535002 112:-0.0043160596 113:0.0046715913 114:-0.018872791 115:0.015173104 116:-0.017710084 117:0.013783833 118:-0.0038691551 119:0.015560764 120:-0.011847207 121:0.0045487611 122:-0.033891696 123:0.017739838 124:-0.00093282117 125:0.0026052801 126:-0.00044312698 127:0.030176051 128:-0.0049051586 129:0.0058054841 130:-0.0059152427 131:0.0086996395 132:-0.012868656 133:0.020945014 134:-0.020935577 135:0.0080269229 136:-0.0042834252 137:0.011665814 138:-0.0082243141 139:0.010053371 140:-0.017302135 141:0.0096190531 142:-0.012023754 143:0.0077276478 144:-0.0048356321 145:0.00084353707 146:-0.0016231506 147:0.00016247385 148:-0.012303351 149:0.022043429 150:-0.010254976 151:0.0060679327 152:-0.0041793564 153:0.028553797 154:-0.010986919 155:0.013318232 156:-0.025365369 157:0.002039566 158:-0.018550262 159:0.0048035059 160:-0.0073180613 161:0.016227499 162:-0.006023064 163:0.0031267079 164:-0.012234883 165:0.019801527 166:-0.0088989625 167:0.00079664705 168:-0.0094234689 169:0.007844111 170:-0.0035439264 171:0.007944335 172:-0.0095246109 173:0.00045611505 174:-0.0044917527 175:0.024391516 176:-0.01143599 177:0.0049026472 178:-0.011856233 179:3.3594391e-05 180:-0.011310261 181:0.010442513 182:-0.0044507953 183:0.015883849 184:-0.0054311163 185:0.0065766782 186:-0.00017970018 187:0.013556015 188:-0.012857415 189:0.00080686815 190:-0.0045507236 191:0.014374954 192:-0.018648281 193:0.0091035694 194:-0.013404548 195:0.0060549961 196:-0.0031009854 197:-0.017310613 198:-0.006343019 199:0.0058772967 200:-0.006581585 
1 1:-0.11244765 2:-0.11854009 3:-0.018446364 4:0.20829357 5:0.27919076 6:-0.04276825 7:0.073563154 8:0.60283859 9:-0.11527356 10:-0.21212654 11:0.051004917 12:0.16904118 13:-0.27364588 14:0.07527049 15:0.098571098 16:-0.043574735 17:0.087011734 18:-0.14149887 19:-0.13297361 20:-0.14819697 21:0.036835733 22:0.042950529 23:0.068083501 24:-0.0083470095 25:-0.10925436 26:-0.076373003 27:-0.01557941 28:-0.046354772 29:0.075642011 30:0.13805619 31:0.064812538 32:0.087045708 33:0.06492914 34:0.0030867795 35:-0.027744859 36:-0.10987974 37:-0.074678952 38:0.040296067 39:0.04062182 40:0.043622129 41:0.013072565 42:0.0098087538 43:0.070078304 44:-0.075346299 45:0.019200459 46:0.044157779 47:-0.016261234 48:-0.045216903 49:0.038112053 50:-0.060828687 51:0.062101155 52:0.00086244591 53:0.003499267 54:0.067508597 55:-0.016301214 56:0.00077508082 57:0.037866446 58:0.017563779 59:-0.020715532 60:-0.080378755 61:0.094463096 62:-0.082276677 63:-0.025701672 64:0.010815967 65:0.027049528 66:0.003344302 67:0.070611517 68:-0.015675361 69:-0.0081244081 70:0.002895513 71:-0.05090119 72:-0.030035433 73:0.0017335595 74:0.0045863048 75:0.013096098 76:0.041088778 77:-0.02220363 78:0.019331274 79:0.011757696 80:-0.022343586 81:-0.0406637 82:-0.035174231 83:0.039001216 84:-0.041666514 85:-0.0047342834 86:-0.015438322 87:-0.0055000668 88:-0.025097199 89:0.064828214 90:-0.035255711 91:0.0019882262 92:-0.026723839 93:0.034131312 94:-0.048693111 95:-0.012771057 96:0.012684011 97:0.0021595091 98:-0.051194435 99:-0.015731866 100:0.0060686146 101:-0.011408955 102:-0.016417634 103:-0.002556979 104:-0.025441103 105:0.016540559 106:0.016071254 107:-0.07503773 108:-0.021598281 109:0.012794813 110:0.027553057 111:0.0039149903 112:0.050708835 113:0.011438498 114:0.039474933 115:-0.014646185 116:-0.042351291 117:0.020692163 118:0.013574985 119:-0.025549229 120:0.0099517335 121:0.023569202 122:0.019301766 123:0.013562461 124:0.062665274 125:0.0057002905 126:0.035321442 127:-0.0079734791 128:0.021203061 129:0.017626296 130:0.012682655 131:0.027538533 132:0.025219097 133:-0.0059178939 134:0.013462486 135:0.056197059 136:-0.031935749 137:-0.0058513845 138:-0.024352702 139:-0.020798269 140:0.033613437 141:0.026923689 142:-0.015397944 143:-0.015390183 144:0.0044664438 145:-0.0078964334 146:-0.026760286 147:0.029108134 148:-0.041892649 149:0.003738383 150:0.016621955 151:-0.0080740734 152:0.010623037 153:0.0090239945 154:0.021154879 155:-0.00041239306 156:0.0092134769 157:-0.023496217 158:-0.0016461314 159:0.0005698656 160:0.00019750769 161:-0.0051600316 162:0.011281354 163:0.0014395366 164:0.0047688254 165:-0.03637518 166:0.018224974 167:0.0030547804 168:0.0034383819 169:0.0031944335 170:-0.0092334422 171:-0.0026770598 172:0.0014553358 173:0.0092505145 174:-0.015059855 175:0.0016735846 176:0.025998165 177:-0.0069529503 178:0.05464149 179:0.008373682 180:0.016828546 181:-0.037331044 182:-0.0083605423 183:-0.014212972 184:-0.011495824 185:-0.028772512 186:0.018904887 187:-0.0076185177 188:-0.00093315856 189:0.026023979 190:-0.02479896 191:0.0089246827 192:-0.011684631 193:0.02618941 194:0.043079722 195:-0.0088417759 196:0.0060894714 197:0.022008513 198:0.019501989 199:-0.0014253997 200:0.010738802 
1 1:0.36868191 2:-0.20882439 3:-0.45384527 4:0.14703777 5:-0.15269168 6:-0.0086843967 7:-0.099206756 8:-0.017602356 9:0.012553858 10:-0.082157543 11:0.10389843 12:0.068315626 13:-0.13206576 14:-0.05793631 15:0.088538267 16:0.092293952 17:-0.18993785 18:-0.17561077 19:0.074992212 20:0.045593903 21:-0.025501646 22:-0.11443485 23:0.040627203 24:-0.061418697 25:0.0069861538 26:-0.01129823 27:-0.01616817 28:-0.015078019 29:0.044885202 30:0.089317815 31:0.053220427 32:-0.0059347801 33:0.0079309529 34:0.074406646 35:-0.097264246 36:-0.034481665 37:-0.025254847 38:0.010715024 39:-0.083770165 40:0.036252689 41:-0.0016932967 42:0.033675295 43:-0.09180152 44:0.056028304 45:-0.068018217 46:0.080060137 47:0.10402212 48:0.032151099 49:0.036247743 50:-0.031015029 51:0.004004482 52:0.14391061 53:0.052403744 54:-0.016086986 55:-0.014068742 56:0.017340322 57:-0.049740894 58:-0.012449842 59:-0.012421231 60:0.040029278 61:-0.10592827 62:0.035211775 63:-0.10045901 64:-0.0062174332 65:0.066508978 66:-0.020739392 67:0.00027771593 68:-0.0026074145 69:-0.045789763 70:-0.090412102 71:0.0086561298 72:-0.1235621 73:0.048568128 74:0.061821232 75:-0.014626879 76:0.016962951 77:0.034240108 78:0.042160133 79:-0.051586057 80:0.03482045 81:0.095851843 82:0.034799183 83:0.041890789 84:0.043366336 85:0.1056687 86:0.065756962 87:0.15502651 88:0.0096399163 89:0.061662188 90:-0.027202568 91:0.059145232 92:0.11573745 93:0.087375203 94:0.052442882 95:-0.13242281 96:0.0064259701 97:0.027462975 98:0.028922877 99:0.023821844 100:-0.0081182792 101:0.015607571 102:0.017885914 103:0.0071771769 104:-0.077404328 105:-0.022599177 106:-0.020195859 107:-0.044317205 108:0.045067762 109:-0.0049694346 110:-0.044759153 111:-0.010022304 112:-0.024828478 113:-0.054977212 114:0.016424238 115:0.058465785 116:0.054571994 117:0.049669507 118:0.030704643 119:-0.024230993 120:0.0052570119 121:0.014262529 122:-0.031438342 123:0.036456723 124:-0.01062642 125:-0.010666822 126:0.054238892 127:-0.068087351 128:0.0023100704 129:-0.0043155533 130:-0.038061304 131:-0.043069345 132:0.034864559 133:0.029327289 134:-0.037597191 135:-0.026590191 136:0.0063606435 137:-0.0028211361 138:0.060556806 139:0.021273 140:-0.025257933 141:-0.0026890377 142:-0.015751351 143:0.038158298 144:0.035683605 145:-0.010136977 146:-0.005056812 147:0.029624321 148:-0.0034212061 149:0.0016076044 150:0.018380325 151:0.059544478 152:-0.0057712173 153:0.019049853 154:-0.030272257 155:-0.060085192 156:0.044235854 157:-0.033314095 158:0.020943535 159:-0.078544828 160:0.070816922 161:0.0096684031 162:-0.035834893 163:0.030093864 164:-0.013386324 165:0.040444187 166:-0.025152555 167:-0.061887225 168:0.030607248 169:0.020377557 170:-0.0071574891 171:0.01141639 172:0.048685268 173:-0.0063681593 174:-0.00062947796 175:0.0049880407 176:0.035354025 177:-0.048456745 178:0.015390438 179:0.045078116 180:0.022734794 181:0.00430973 182:0.046125601 183:-0.012883289 184:-0.0052677771 185:0.080733726 186:0.047452424 187:0.0045178043 188:0.015417477 189:-0.062863288 190:0.039405709 191:0.0096015739 192:0.00013643555 193:-0.050942236 194:0.047919622 195:-0.072124345 196:-0.023165783 197:-0.029094416 198:-0.045751089 199:-0.033426538 200:0.011444337 
1 1:-0.44544185 2:0.80504662 3:0.0085897404 4:-0.18706395 5:-0.19384409 6:-0.03696706 7:-0.099735794 8:-0.040288308 9:-0.0099083271 10:0.0339386 11:0.060698283 12:0.07129718 13:0.060515169 14:0.12458634 15:0.011537592 16:-0.015435898 17:0.020081913 18:-0.025694062 19:0.013680221 20:0.05777654 21:-0.0099910656 22:-0.024521726 23:0.016932063 24:0.040789374 25:-0.03854429 26:-0.0011911243 27:0.072564329 28:-0.04229849 29:0.0043125653 30:-0.013999698 31:0.012965108 32:-0.010167757 33:0.026409356 34:-0.01808764 35:0.0064686523 36:0.035846411 37:0.016245741 38:0.029346085 39:-0.027000258 40:-0.011999536 41:-0.023424882 42:0.033418718 43:0.018771621 44:0.0051975647 45:-0.012786562 46:-0.0030932234 47:0.022466664 48:0.019457978 49:0.0031768296 50:0.040527189 51:-0.0019468316 52:-0.01352213 53:0.015905375 54:0.0087189888 55:-0.011297846 56:-0.010660802 57:-0.024103131 58:0.017204438 59:0.0064134967 60:-0.028933325 61:0.0068873301 62:-0.0067050289 63:-0.0054459018 64:0.018403599 65:0.0047175341 66:0.0091709194 67:0.019346872 68:-0.003346493 69:0.0068466189 70:0.010642262 71:0.0015293753 72:0.0069522707 73:-0.0041214881 74:0.0029352292 75:0.00060482079 76:0.024659185 77:-0.0081053833 78:-0.010108526 79:0.011629198 80:-0.0067363663 81:-0.0056513473 82:-0.0081598965 83:-0.0035047898 84:0.0041582317 85:-0.029786992 86:-0.005167823 87:0.017433607 88:0.012274755 89:0.0097672408 90:-0.0047657383 91:0.0023108309 92:-0.001259824 93:-0.019004891 94:0.0241859 95:0.011998299 96:0.00045699164 97:0.012514638 98:-0.007041662 99:0.0066651381 100:-0.010061843 101:0.015086619 102:-0.0021869332 103:0.020053121 104:-0.0049664119 105:0.016714528 106:-0.0037347366 107:-0.0035486279 108:-0.0071257265 109:-0.0047256879 110:0.018973791 111:-0.0026487562 112:0.00028076744 113:-0.00631263 114:-0.0086839971 115:0.012776382 116:-0.0067715068 117:0.0044268952 118:-0.0067210342 119:0.0027326307 120:0.013517057 121:-0.0065853928 122:-0.004640568 123:0.00090149898 124:0.00037043286 125:-0.019159778 126:-0.00041091298 127:-0.0040973988 128:0.0025804096 129:0.0032381241 130:-0.006964207 131:0.016242307 132:0.012105867 133:-0.010705099 134:0.00022749901 135:0.0058419536 136:0.021482808 137:-0.0091280761 138:-0.00098233268 139:0.00060671612 140:0.002616775 141:0.010339166 142:-0.010763896 143:-0.0059599179 144:0.003302502 145:0.0037949857 146:0.0048777963 147:0.001934869 148:0.0015063838 149:0.0035598981 150:-0.013210438 151:0.0070537521 152:-0.00076633474 153:-0.00044231826 154:0.002365224 155:0.0029629824 156:0.0065663584 157:-0.0017351606 158:0.0015464895 159:-0.0065297928 160:-0.0038554426 161:-0.0010417809 162:0.012638749 163:-0.0022735374 164:0.0006947984 165:-0.0067359103 166:0.0056735504 167:0.010120101 168:0.0048702937 169:0.0058816593 170:-0.0027777693 171:0.0018684342 172:-0.0043765987 173:-0.0031632347 174:-0.0057098953 175:-0.0055230377 176:0.0051771186 177:-0.0034744162 178:0.0029025664 179:0.010273283 180:0.0050811887 181:-0.0048857235 182:-0.0031338304 183:0.0037002059 184:-0.00095012392 185:0.0038059467 186:6.1780994e-05 187:0.00059081006 188:0.0031143852 189:-0.00051540799 190:0.00043629787 191:-0.0011005379 192:-0.00040068986 193:0.0030597674 194:0.0079073559 195:0.0053551826 196:-0.00394764 197:-0.0017335541 198:0.0020798433 199:-0.0035739199 200:0.0073631487 
1 1:-0.86913898 2:-0.22595356 3:0.056601311 4:0.0045275989 5:0.018527171 6:-0.00046534994 7:0.078659552 8:0.029216233 9:-0.099482852 10:-0.11835971 11:-0.0075175109 12:-0.12642544 13:-0.04718044 14:-0.061940637 15:0.03225428 16:-0.1727745 17:-0.11866452 18:-0.026908193 19:0.044857425 20:-0.045049333 21:0.0022630654 22:-0.10470605 23:0.10516024 24:0.013957724 25:0.050796863 26:0.10159166 27:-0.036152707 28:0.04452054 29:0.0046451254 30:0.059616839 31:0.016107068 32:-0.058398404 33:-0.032966643 34:0.0024429978 35:-0.0028308007 36:-0.01281095 37:-0.022917644 38:-0.030886877 39:0.022449054 40:0.014742397 41:-0.0060531975 42:0.037520434 43:0.033396368 44:0.033033035 45:0.0043645939 46:-0.028239222 47:-0.014867628 48:0.024026907 49:-0.037750208 50:-0.034547822 51:0.0024305749 52:-0.03540913 53:-0.024687785 54:0.0023181343 55:0.021790395 56:0.018179336 57:-0.0028051306 58:0.015097217 59:0.040700948 60:0.033381632 61:0.0074092485 62:-0.0077601538 63:-0.027234338 64:-0.064405306 65:0.021251827 66:0.036003811 67:-0.0012252278 68:0.0040622581 69:-0.013139711 70:-0.013085353 71:0.014300602 72:0.02559437 73:0.01373852 74:0.0081031652 75:0.013928302 76:0.015303161 77:-0.019094218 78:0.0049487697 79:0.011153179 80:-0.0015942512 81:0.018088652 82:0.023750326 83:-0.0060134987 84:0.0021281142 85:-0.0083637482 86:-0.0070559799 87:0.024327088 88:0.029627676 89:0.01619631 90:0.008023582 91:0.0030424679 92:-0.021049703 93:0.0041353963 94:-0.015397729 95:-0.0077201177 96:-0.018043546 97:-0.0046968621 98:-0.0121291 99:-0.0033060498 100:-0.0082295201 101:0.01212937 102:-0.0064873932 103:-0.0011112542 104:0.0088925673 105:-0.02076276 106:-0.0014225715 107:-0.0023393577 108:0.013561029 109:-0.0016605514 110:-0.023594601 111:0.011593269 112:0.011811815 113:-0.017738547 114:-0.013676787 115:0.0010549938 116:0.015530153 117:-0.012827404 118:-0.018975389 119:0.018070406 120:0.0089788689 121:0.029007469 122:-0.014484023 123:0.0031572502 124:0.0057508915 125:-0.014051918 126:-0.020788601 127:-0.010840334 128:-0.0001633521 129:0.0083427585 130:-0.015153589 131:-0.0048798887 132:-0.0076310496 133:0.0047130795 134:-0.015325023 135:0.011272061 136:-0.0016314794 137:-0.00096543304 138:0.0045810561 139:-0.0051430666 140:-0.0035565176 141:0.00080774394 142:0.011400602 143:0.0091453477 144:0.0037673543 145:0.0063428257 146:0.012181469 147:0.00081095728 148:0.0042703066 149:0.01492761 150:-0.00028574943 151:-0.007103336 152:-0.0077952448 153:0.0016366982 154:-0.0024159288 155:0.01118048 156:-0.002943511 157:0.0013630438 158:-0.012552024 159:0.024494188 160:-0.0026853413 161:-0.01054754 162:-0.014788442 163:-0.0013691565 164:0.0066422743 165:0.0094011921 166:-0.0036571061 167:0.0016635033 168:0.0047547235 169:-0.0099727826 170:-0.0028139178 171:0.0068841481 172:0.0055151559 173:-0.0048364803 174:0.015435361 175:0.015440016 176:0.018309275 177:-0.0035758146 178:0.015139264 179:0.0093818186 180:-0.017948925 181:-0.0067763973 182:0.013734384 183:-0.0017302987 184:0.0082966086 185:0.0014154499 186:0.013928375 187:0.0042869627 188:0.0029726708 189:-0.0083595039 190:-0.0039496004 191:-0.011301311 192:0.0059477883 193:-0.0091552648 194:0.012804239 195:0.0017381212 196:0.0011013521 197:0.0033825674 198:-0.0059582359 199:-0.0085785459 200:-0.0074523506 
1 1:-0.82318312 2:0.15220597 3:-0.034119067 4:-0.16931193 5:-0.064845778 6:0.086372728 7:-0.064779335 8:-0.044601555 9:0.20979658 10:-0.22685297 11:-0.2298869 12:0.025976452 13:-0.11252958 14:0.060086723 15:-0.064944186 16:0.015198611 17:0.040123601 18:0.042155928 19:-0.033919187 20:-0.02504115 21:0.090908138 22:0.071823488 23:0.12910365 24:-0.021031053 25:-0.0037183434 26:0.048857648 27:-0.031286205 28:0.0072407973 29:-0.012986956 30:0.0026141402 31:-0.0036144973 32:0.0078321978 33:-0.0054672699 34:0.016303022 35:-0.0026469597 36:-0.021038081 37:0.010722018 38:0.016595122 39:0.0024739627 40:-0.0041028738 41:0.013623586 42:0.018314301 43:0.026149953 44:-0.014505508 45:-0.047109061 46:-0.021175778 47:-0.0024507795 48:-0.032677317 49:-0.054897199 50:0.013632067 51:0.030387332 52:0.038757071 53:-0.018789471 54:0.0085741117 55:-0.015059558 56:-0.01476289 57:-0.010241017 58:-0.017161428 59:-0.024888122 60:-0.046592688 61:0.017624724 62:-0.045703953 63:0.00093244919 64:0.03708941 65:0.019651479 66:-0.021735371 67:-0.04457434 68:0.017918794 69:-0.021995585 70:-0.017413371 71:0.0075910079 72:0.032535416 73:-0.013356992 74:-0.0027174639 75:0.0047175653 76:0.018828327 77:-0.0096471676 78:0.023836428 79:-0.0023373573 80:-0.014966764 81:0.015914933 82:0.0087884364 83:-0.027363074 84:0.0057313096 85:-0.025700849 86:0.029765417 87:-0.010619809 88:-0.0069433675 89:0.039609489 90:-0.00057672941 91:-0.0072840351 92:0.0095803892 93:-0.010311544 94:0.01829654 95:-0.0096146723 96:0.021101183 97:0.015159138 98:0.0083792531 99:-1.82351e-05 100:-0.003018745 101:-0.0044094005 102:0.003441133 103:0.010428851 104:0.00097233767 105:0.0078614372 106:0.01458798 107:0.010044858 108:0.0079908963 109:0.0096896595 110:0.0021511492 111:-0.003851714 112:-0.0077386629 113:-0.0021118207 114:0.0093914757 115:-0.018069493 116:-0.0090253647 117:-0.0092442276 118:0.0053551947 119:-0.042598298 120:0.026690858 121:0.0098344571 122:-0.012324145 123:0.0039713821 124:-0.0018125715 125:0.0086548477 126:-0.018335341 127:0.00088774603 128:0.0024903244 129:-0.01258236 130:-0.015437137 131:0.0055057038 132:-0.0063475047 133:-0.003090939 134:0.016240369 135:-0.00065452791 136:-0.0035616311 137:0.0081144243 138:0.0040289944 139:-0.0050546562 140:-0.0042844409 141:0.0020128554 142:-0.0085936523 143:-0.0097111846 144:0.0083115906 145:0.010009969 146:-0.0097947943 147:-0.012989076 148:-0.0026433185 149:-0.0077391862 150:0.0099645594 151:0.0090983359 152:-0.0080118223 153:0.0091831469 154:-0.0080497553 155:-0.0013427111 156:0.015251043 157:0.0070013336 158:-0.0022515287 159:-0.016695056 160:0.0046412681 161:-0.01441755 162:-0.00093067841 163:0.0098264038 164:-0.0017159493 165:0.0059735516 166:0.0010219978 167:0.011809354 168:-0.0026092644 169:-0.015354488 170:-0.0092401997 171:-0.00090617326 172:-0.0014623613 173:0.0015658796 174:-0.013225284 175:-0.012410983 176:-0.011077878 177:0.0011053249 178:0.00051814996 179:-0.0012093117 180:0.0074557293 181:0.0044253708 182:-0.002632781 183:0.0041432758 184:-0.00023198067 185:-0.017534264 186:-0.0053192593 187:0.01466031 188:-0.0035311161 189:0.017850661 190:-0.0063745788 191:0.011876117 192:-0.007573404 193:-0.0047391105 194:0.0055508773 195:0.01993081 196:0.0083545519 197:-0.0093928319 198:0.0017708281 199:0.0057684516 200:-0.0065338377 
0.86936512754617723 1:0.066311266 2:-0.27533749 3:-0.1375177 4:0.13188647 5:0.040544491 6:0.070033081 7:-0.16352645 8:-0.097109455 9:-0.29053386 10:-0.21874725 11:-0.11638958 12:-0.13863189 13:0.1803738 14:0.15426917 15:0.089462514 16:0.043880397 17:-0.063417564 18:0.0054580293 19:0.049816095 20:-0.0069506343 21:0.052747971 22:-0.15319698 23:0.11029888 24:0.025716241 25:-0.03276163 26:-0.11915173 27:-0.12290722 28:0.04208017 29:-0.08652072 30:-0.022869268 31:-0.02189818 32:0.046726409 33:0.061556377 34:-0.012639303 35:-0.069255366 36:0.027337743 37:-0.024378582 38:-0.068539705 39:-0.0811333 40:0.069619366 41:-0.13606004 42:-0.076672125 43:-0.032159059 44:0.058476734 45:0.09477792 46:0.05682856 47:0.03286023 48:-0.16651387 49:0.038100017 50:0.064130224 51:-0.079743539 52:0.0030876593 53:-0.093835933 54:0.06034357 55:0.14331694 56:0.030241741 57:0.041967109 58:-0.087220449 59:0.033032554 60:0.1387271 61:0.093043446 62:0.090396782 63:0.0086355808 64:-0.031279176 65:0.093439829 66:-0.030230515 67:0.04427664 68:-0.034539735 69:-0.10126617 70:-0.10222502 71:-0.030725235 72:-0.032757327 73:0.034836713 74:0.042736296 75:0.026918273 76:-0.047269588 77:0.035372324 78:-0.0038275306 79:0.10708304 80:-0.091270404 81:-0.096219852 82:-0.081952307 83:0.098926492 84:-0.11830548 85:-0.034819505 86:-0.059554125 87:-0.0066977455 88:0.0019927832 89:-0.032991619 90:-0.06778419 91:-0.0052331953 92:-0.0098286697 93:-0.021607635 94:-0.023409379 95:-0.053482561 96:0.10197724 97:0.054249804 98:-0.033852013 99:0.024876211 100:-0.14847248 101:0.13892926 102:0.01622163 103:0.023914321 104:0.013975515 105:-0.0095185579 106:-0.0064759411 107:-0.032248496 108:0.023051621 109:0.012790126 110:0.067026343 111:-0.035978866 112:0.036058069 113:-0.0057132437 114:0.055017521 115:0.066462742 116:0.016661015 117:-0.088432897 118:0.029884459 119:0.042212621 120:-0.0048907696 121:0.048444599 122:-0.0057588981 123:-0.0042689735 124:0.079203586 125:-0.080372038 126:0.038952165 127:-0.031350758 128:-0.02534015 129:-0.025136344 130:0.046905245 131:0.017004415 132:-0.0018949478 133:0.047071384 134:-0.027810605 135:0.024613313 136:-0.0071745048 137:-0.058148993 138:0.052496091 139:-0.049291161 140:0.046435634 141:-0.011768082 142:0.033232445 143:-0.084798125 144:0.088665803 145:0.011872658 146:-0.074741203 147:-0.020909854 148:0.0072690565 149:0.011243946 150:0.0012989997 151:-0.020564127 152:-0.050513617 153:0.037606186 154:-0.03914368 155:-0.039683658 156:0.09762634 157:0.068620953 158:0.001653498 159:0.038758956 160:0.012247633 161:0.018946184 162:-0.0024987627 163:0.011846313 164:-0.059183465 165:0.0086387485 166:0.0087552558 167:0.038162449 168:-0.0047735979 169:0.0079999468 170:-0.040068078 171:-0.063956296 172:0.053990055 173:0.021004302 174:0.024103414 175:-0.0149903 176:-0.016558372 177:0.057389433 178:0.0055610231 179:-0.037222929 180:0.013573677 181:0.09565303 182:0.043545074 183:0.04085716 184:0.001675616 185:0.049710396 186:0.018260106 187:-0.0055625768 188:-0.0020443155 189:-0.015902789 190:0.0097669731 191:-0.021877352 192:0.083660577 193:-0.018250644 194:0.024965632 195:0.022587995 196:-0.022799211 197:-0.018473336 198:-0.010999009 199:0.014636901 200:-0.037240049 
0.19084103331588764 1:0.29383531 2:0.062134552 3:-0.27520312 4:0.037702821 5:-0.25963777 6:0.1606775 7:0.19322851 8:-0.067063342 9:-0.25188473 10:0.30279499 11:0.058216351 12:-0.27332721 13:0.018673837 14:-0.0038835046 15:0.071446989 16:0.20727782 17:-0.0045500921 18:-0.13654471 19:0.073878576 20:-0.088966521 21:-0.01841324 22:-0.13988257 23:-0.04213027 24:0.062169529 25:-0.16888149 26:-0.10644293 27:-0.014019441 28:-0.11752889 29:-0.074843123 30:-0.043944568 31:0.05732895 32:0.065686387 33:0.14424895 34:-0.015425541 35:-0.11948603 36:-0.091532435 37:-0.030668738 38:0.1546352 39:-0.0094246143 40:-0.011071761 41:-0.090965422 42:-0.040292205 43:-0.05432828 44:-0.046825473 45:0.066184154 46:-0.017415896 47:-0.019195836 48:-0.0035386326 49:-0.013883038 50:-0.013522233 51:-0.0037776928 52:0.0069889687 53:-0.014070905 54:-0.04052391 55:0.0056585527 56:-0.0049100289 57:0.019858211 58:-0.0049641968 59:-0.089563985 60:-0.0092490673 61:-0.050418907 62:-0.0039483786 63:-0.02914293 64:-0.054827708 65:0.022219118 66:-0.023841135 67:-0.034998706 68:-0.018449376 69:-0.037063715 70:-0.13577742 71:-0.064606183 72:0.048825101 73:-0.10482748 74:0.05583174 75:-0.024069664 76:-0.029926354 77:0.037742968 78:0.013574333 79:0.028084773 80:0.038449669 81:-0.0064041328 82:-0.031643877 83:-0.051064129 84:-0.02525108 85:-0.055687527 86:-0.028369646 87:0.065383831 88:0.0019739372 89:0.041823021 90:0.07449757 91:-0.045849234 92:-0.05210893 93:-0.0058095513 94:-0.013755971 95:-0.01281817 96:0.064448532 97:0.029056373 98:0.047302384 99:-0.009718886 100:-0.057301211 101:-0.099924203 102:-0.080256563 103:-0.0038327905 104:-0.038188272 105:-0.035405606 106:0.020951361 107:0.036756269 108:0.01066832 109:-0.00057973464 110:-0.064911699 111:-0.049923554 112:-0.043734509 113:0.027677586 114:0.011073448 115:-0.03439286 116:0.0024464347 117:-0.017933604 118:-0.019841653 119:0.059227443 120:-0.034465336 121:-0.020074288 122:-0.016879599 123:-0.045728407 124:-0.012632486 125:0.075268609 126:-0.018957617 127:0.0033196868 128:0.022854919 129:0.025399282 130:-0.036092071 131:-0.0047470508 132:0.10417758 133:0.0050220697 134:-0.051129505 135:0.011558602 136:0.024566047 137:0.027425582 138:0.020594257 139:-0.0069191712 140:-0.024068632 141:0.0041945407 142:0.035072872 143:-0.012426612 144:0.012660825 145:-0.01275294 146:-0.0052508579 147:0.016141867 148:-0.053230341 149:0.041817001 150:0.030638398 151:0.024069408 152:0.0064651483 153:0.0042675854 154:-0.024627417 155:-0.019838358 156:-0.016567904 157:-0.00096332388 158:-0.008195251 159:-0.0015072209 160:-0.012714595 161:0.0077220675 162:0.050351768 163:0.0017606344 164:0.05364473 165:-0.035301141 166:-0.019301892 167:-0.060503292 168:0.013813178 169:-0.02151378 170:0.0096901891 171:-0.0038564805 172:-0.022702177 173:0.014276007 174:0.013528336 175:-0.0086941138 176:-0.016724681 177:-0.0084256685 178:-0.012961784 179:-0.014553511 180:0.0090590631 181:0.034545793 182:0.0035894984 183:-0.002407449 184:0.026611613 185:0.027321584 186:-0.004997489 187:0.0027456661 188:0.025344704 189:-0.017745547 190:-0.0059599299 191:-0.022413172 192:-0.047438845 193:-0.031852114 194:0.0050386308 195:0.045806646 196:0.0092296467 197:-0.0046916416 198:0.037909023 199:0.011847356 200:0.015248189 
1 1:-0.3767799 2:0.3324458 3:0.21763577 4:-0.32724057 5:-0.33571189 6:-0.23468399 7:-0.15767624 8:-0.091126795 9:0.28706763 10:0.068608879 11:0.15339086 12:-0.047347936 13:-0.030256352 14:-0.0099249115 15:0.082271622 16:-0.016180865 17:-0.11631685 18:0.0026572127 19:-0.038637123 20:-0.053529582 21:-0.07680807 22:0.023372522 23:-0.0024368724 24:0.03819731 25:0.019219276 26:0.068102213 27:0.048235044 28:-0.0082578875 29:0.085532576 30:-0.050702221 31:0.045602954 32:-0.047001666 33:-0.033495127 34:-0.060915261 35:-0.071278045 36:-0.0072351944 37:-0.077952928 38:-0.0051055054 39:-0.040930202 40:-0.084635937 41:-0.024375982 42:-0.0033847822 43:0.017949286 44:0.015617143 45:0.07258255 46:-0.11366301 47:0.036643517 48:-0.095613374 49:0.05183 50:-0.094089076 51:-0.024797441 52:0.021789112 53:-0.019200826 54:0.00056070929 55:-0.018620351 56:0.065647557 57:-0.021202596 58:-0.03209226 59:0.069294328 60:-0.016190867 61:0.089819289 62:-0.023111164 63:0.025833245 64:0.031837897 65:-0.09036069 66:-0.072647627 67:-0.02814616 68:0.10923264 69:-0.062643619 70:-0.044769359 71:0.0066873365 72:-0.0053298237 73:0.019975543 74:-0.046678078 75:0.040047536 76:0.003593594 77:0.028812792 78:-0.0032013632 79:-0.019436615 80:0.029775399 81:-0.0035374286 82:0.010984414 83:-0.020980451 84:0.0064304733 85:0.033683325 86:-0.020710324 87:-0.015722594 88:0.039125685 89:-0.0042725985 90:0.030238955 91:0.0567894 92:-0.046206345 93:0.025647711 94:-0.010433973 95:0.051749869 96:0.041815999 97:0.022873427 98:-0.049263485 99:-0.024678271 100:-0.020309548 101:-0.014979489 102:-0.046213287 103:0.037641129 104:-0.018569393 105:0.031212932 106:-0.012963252 107:0.031342496 108:-0.011687234 109:0.018735 110:0.055598729 111:-0.023228456 112:0.072757433 113:-0.0078140567 114:0.068192904 115:-0.034975093 116:0.032324007 117:0.033590059 118:-0.020885278 119:0.04750843 120:0.0013107956 121:-0.015365371 122:0.019858486 123:-0.01574872 124:-0.037474045 125:0.00010663546 126:-0.022707951 127:0.043646928 128:-0.014061845 129:0.03910289 130:0.018598171 131:-0.071513651 132:-0.0094491275 133:-0.0024052889 134:0.0035794845 135:-0.010573444 136:0.032983073 137:-0.024069071 138:0.077085411 139:0.046483066 140:0.041658272 141:0.019353153 142:0.038512801 143:0.01388463 144:0.012211321 145:-0.021240959 146:0.018372615 147:-0.02223335 148:-0.03450851 149:-0.021019944 150:-0.017614779 151:0.023480853 152:6.3393784e-05 153:-0.0039929124 154:0.031422781 155:-0.03525648 156:-0.036109525 157:-0.0022576518 158:0.015520048 159:-0.018134741 160:0.029303797 161:-0.011848786 162:-0.066401398 163:0.028428425 164:-0.0081674529 165:-0.026040646 166:-0.005427439 167:-0.0074050413 168:-0.029434793 169:-0.0098653148 170:0.010631708 171:-0.011832812 172:0.006223587 173:0.024235873 174:0.0044262368 175:-0.012357043 176:-0.0045898514 177:0.022293417 178:-0.028358652 179:0.022142873 180:-0.0093090122 181:-0.0026356221 182:-0.017122448 183:0.0078989476 184:-0.0069223918 185:-0.018780773 186:-0.012641295 187:0.010333248 188:0.041106623 189:0.0070994988 190:-0.01939736 191:-0.033426088 192:0.0045021473 193:0.0062342435 194:0.014476337 195:0.0022314726 196:-0.015088207 197:-0.018191774 198:-0.013183942 199:0.016166676 200:0.0050249866 
1 1:-0.40727923 2:-0.3919455 3:0.024073372 4:-0.07600187 5:0.37586365 6:0.014686424 7:0.090019817 8:-0.098659038 9:-0.0072784322 10:-0.19121255 11:-0.091499428 12:0.15207704 13:-0.059782806 14:0.19165491 15:0.059038996 16:-0.091543235 17:-0.064046148 18:0.010049187 19:0.044512807 20:0.11372183 21:0.036513788 22:-0.067195322 23:0.037597326 24:-0.027020625 25:-0.045024448 26:-0.12117673 27:0.0045505933 28:0.099349279 29:-0.038031106 30:-0.066584764 31:-0.034277987 32:0.13041544 33:0.024100445 34:-0.0086882566 35:0.023786656 36:0.030317198 37:0.059175077 38:-0.098519498 39:-0.13182877 40:-0.042870644 41:0.10182602 42:0.069573945 43:-0.14922192 44:-0.049144142 45:0.0080574593 46:0.0025587049 47:-0.11623091 48:0.03034605 49:-0.030667763 50:0.038553136 51:0.010943765 52:0.022479569 53:0.056569856 54:-0.040818979 55:-0.091389817 56:0.0079317735 57:0.10247291 58:0.067387875 59:0.12984628 60:0.06630821 61:0.012382041 62:-0.043235687 63:-0.0049682321 64:0.0233202 65:0.064153877 66:-0.084580655 67:0.00066926952 68:0.11522399 69:-0.049579925 70:0.079931446 71:0.01354563 72:-0.020631103 73:-0.065357654 74:0.058550851 75:0.038674166 76:-0.015197692 77:-0.033110327 78:-0.056338304 79:0.036731019 80:0.017746878 81:0.0075013322 82:0.041739319 83:0.072526246 84:-0.0097373594 85:-0.038246555 86:-0.034190351 87:0.052040085 88:-0.0383583 89:0.018947357 90:0.063271095 91:-0.0019796347 92:-0.017211949 93:0.040923099 94:-0.044018199 95:-0.037798045 96:0.019066811 97:0.01593653 98:0.0078619191 99:0.057202543 100:0.012190073 101:0.003521733 102:0.047356794 103:-0.012917574 104:-0.054646871 105:-0.0016066315 106:0.0047175699 107:-0.039311384 108:-0.017739255 109:0.11286119 110:-0.073610711 111:-0.036293113 112:-0.072383844 113:0.039582184 114:0.011373892 115:-0.021001307 116:0.0089571182 117:-0.016230474 118:-0.0020149686 119:-0.022621342 120:-0.036330572 121:-0.010174673 122:0.038954127 123:0.016333593 124:0.010646273 125:-0.028068252 126:-0.044546693 127:0.058349083 128:0.00071723824 129:-0.029381853 130:-0.024626555 131:-0.040548933 132:-0.0082952644 133:-0.0066467908 134:0.0073539003 135:0.023046341 136:0.0082579828 137:-0.013077853 138:0.015728297 139:-0.032643627 140:0.0043976365 141:0.0017618667 142:-0.01840262 143:0.014051268 144:0.0047308363 145:-0.0040231165 146:0.082015903 147:-0.022745195 148:-0.059323732 149:0.00080307194 150:0.010307223 151:-0.032462337 152:0.028070749 153:-0.0025942921 154:-0.028357467 155:-0.022158673 156:0.024996931 157:0.0081080504 158:-0.0050924446 159:-0.011210593 160:-0.056954414 161:-0.01652485 162:0.0019845086 163:-0.011029332 164:-0.038940015 165:0.0089164587 166:0.03139556 167:-0.040690361 168:-0.044080196 169:0.02754705 170:-0.013007354 171:0.037490591 172:-0.011804735 173:-0.0076779327 174:0.0040792449 175:-0.043252522 176:0.026932867 177:0.069572193 178:-0.015643301 179:-0.012759139 180:-0.050490773 181:-0.022395136 182:0.014257038 183:-0.01243381 184:-0.034842889 185:-0.0077893576 186:-0.022427798 187:0.02816006 188:0.0011217757 189:-0.015200288 190:-0.0026664381 191:-0.0073076465 192:-0.0083044677 193:0.022110134 194:0.025586925 195:0.021637007 196:0.0031048358 197:-0.03074172 198:0.023319278 199:-0.010509793 200:-0.018716612 
1 1:-0.11524902 2:-0.80947911 3:0.3760217 4:-0.08530557 5:-0.096602636 6:0.15861628 7:-0.091814438 8:0.067851048 9:-0.014800789 10:-0.021556324 11:0.024517515 12:-0.11512482 13:-0.0060219816 14:-0.094203997 15:0.14729561 16:-0.012995265 17:0.036153037 18:0.056056335 19:-0.044095956 20:-0.079249542 21:0.017733849 22:-0.02119621 23:0.039747853 24:-0.014649237 25:0.044742775 26:0.021937055 27:0.048829203 28:-0.013982706 29:0.038143557 30:-0.046242941 31:-0.048633447 32:0.023388331 33:0.0089159026 34:-0.010800285 35:-0.04502293 36:0.032805247 37:0.016007823 38:-0.021256014 39:0.0089316594 40:-0.025635294 41:-0.03533425 42:0.039077213 43:0.012881847 44:-0.023674433 45:0.037136848 46:-0.045824479 47:-0.022984805 48:0.0069445189 49:-0.010656957 50:0.047328288 51:0.0058680999 52:-0.0070540001 53:-0.022601946 54:0.04385361 55:-0.008100866 56:-0.042228459 57:0.014030986 58:-0.0021191389 59:0.014881421 60:0.018612225 61:0.001951158 62:-0.04335658 63:-0.035113833 64:0.035752947 65:-0.0084481407 66:-0.032952359 67:-0.012209604 68:-0.037277655 69:-0.012576503 70:-0.022280143 71:-0.015312806 72:-0.0042766081 73:0.0093923036 74:0.0087004522 75:-0.0022124531 76:0.031419448 77:0.0064610889 78:0.0037083226 79:-0.0033700475 80:-0.034559069 81:-0.0084065053 82:0.034086257 83:0.028778884 84:-0.005669537 85:0.01643486 86:0.013058391 87:0.00026889839 88:0.03478787 89:-0.0028845647 90:-0.027063603 91:-0.02012237 92:-0.0080367874 93:0.036969147 94:0.018532957 95:-0.033060237 96:0.0064830781 97:0.0041840066 98:0.015935877 99:-0.017317409 100:-0.024772724 101:-0.024954008 102:0.0054472055 103:0.031099196 104:-0.00085545193 105:0.0068132848 106:-0.021208626 107:0.014466043 108:-0.025439956 109:0.023332635 110:0.0036113048 111:0.025777905 112:-0.038280228 113:-0.0087281385 114:0.022167976 115:0.0088650243 116:0.013602531 117:-0.014133526 118:-0.021957685 119:0.0055827985 120:0.0073850879 121:-0.036471494 122:-0.014781409 123:0.00040762777 124:-0.01912301 125:0.011031743 126:-0.018898271 127:0.0026370623 128:-0.0030465905 129:-0.016616072 130:-0.021298803 131:0.012523556 132:0.0046692223 133:0.0036258446 134:-0.037887911 135:-0.0041670397 136:-0.0095667699 137:-0.00022383145 138:0.0060998998 139:0.033674398 140:-0.001157191 141:-0.024592511 142:-0.013132985 143:-0.012968839 144:-0.018198034 145:-0.015966728 146:-0.0039089928 147:0.018461716 148:-0.00059695965 149:0.0035170605 150:0.0082782521 151:-0.011188106 152:0.00072470597 153:-0.02781351 154:0.012514913 155:0.0046869498 156:0.012010308 157:-0.012419035 158:0.015609177 159:-0.012594492 160:0.001640476 161:-0.034368995 162:0.0040475974 163:0.025884581 164:0.0064505592 165:-0.0069661721 166:0.018623869 167:0.0060965358 168:-0.0049181233 169:0.012333431 170:0.008245944 171:0.0064724702 172:-0.0054911702 173:0.0090411142 174:-0.012992279 175:0.016180503 176:-0.0084461281 177:-0.0044641189 178:0.017886785 179:0.00052188458 180:0.011768019 181:0.0043578514 182:-0.0089550817 183:0.01086738 184:-0.0056101939 185:0.0072147283 186:-0.014456624 187:0.00090747595 188:0.0075600063 189:-0.00679045 190:0.0068703197 191:-0.012607891 192:0.011923039 193:0.016746326 194:0.013711132 195:-0.00328993 196:-0.011351664 197:-0.0049110722 198:0.0089859247 199:-0.038532069 200:0.004769003 
1 1:0.039152149 2:-0.45125956 3:-0.19439378 4:-0.45639709 5:-0.23426371 6:-0.083329576 7:0.27210335 8:-0.12260535 9:-0.11527501 10:-0.075135265 11:0.061758956 12:-0.060343317 13:-0.03627467 14:-0.094306499 15:0.10079156 16:-0.083215324 17:-0.18058829 18:-0.050695607 19:0.019385291 20:0.014347963 21:-0.10177551 22:0.030359944 23:0.00081202265 24:-0.2317323 25:0.0039222483 26:-0.076882182 27:0.029989586 28:0.012011241 29:-0.038092642 30:-0.083958157 31:-0.056640134 32:-0.0057801758 33:6.6209401e-05 34:0.032550573 35:0.0062694439 36:0.021522167 37:-0.087330174 38:0.056942808 39:-0.058631934 40:-0.006843675 41:-0.0047480778 42:0.094706151 43:-0.069974499 44:0.0013791148 45:0.073127378 46:0.10019098 47:0.081505274 48:0.050127825 49:0.025995029 50:-0.02182251 51:-0.037494887 52:0.066802433 53:-0.062660094 54:-0.045470941 55:-0.0871757 56:-0.023759842 57:-0.027189992 58:-0.036978593 59:0.035914211 60:-0.079668928 61:0.0078990654 62:0.017676292 63:-0.029853369 64:-0.047027611 65:-0.0052329204 66:-0.070703491 67:0.0026583566 68:0.013501537 69:0.034356985 70:0.055654378 71:0.023742122 72:0.0060108822 73:-0.0364275 74:-0.041427773 75:-0.00096622283 76:0.095912812 77:-0.027668902 78:0.026139439 79:-0.04786016 80:-0.1043646 81:-0.014155834 82:0.0058888473 83:-0.010723974 84:0.045584317 85:0.062132511 86:-0.030595779 87:-0.020991549 88:-0.022904864 89:0.04969919 90:0.030672301 91:0.029075998 92:0.043506177 93:0.026452994 94:0.0083775091 95:-0.04754309 96:-0.004212788 97:0.020347674 98:-0.059800393 99:0.041731138 100:0.0057825439 101:0.00046980818 102:-0.017272761 103:-0.011756819 104:0.026492616 105:0.030431569 106:0.019477181 107:0.023402544 108:0.022747796 109:-0.0024628664 110:-0.046455133 111:0.014708429 112:0.011856689 113:-0.0084818468 114:-0.018772253 115:-0.018613434 116:-0.011406194 117:-0.017742526 118:-0.035278156 119:-0.007977393 120:-0.046094323 121:-0.028484489 122:0.025693616 123:-0.012250223 124:-0.0035414346 125:-0.01506835 126:0.033890785 127:0.026503243 128:0.0017540223 129:-0.01513002 130:0.021656426 131:0.018089965 132:0.024665369 133:0.0037123736 134:-0.0016111478 135:-0.062528746 136:0.018397997 137:0.037669997 138:-0.031852588 139:0.022239373 140:0.029530884 141:-0.033408253 142:0.022149208 143:-0.046494165 144:0.017050022 145:-0.01066089 146:-0.030075208 147:-0.017736639 148:-0.037853437 149:-0.03550704 150:-0.020718348 151:0.046597744 152:-0.052172771 153:-0.054837116 154:0.045784835 155:0.0066948958 156:0.049605645 157:-0.0034839395 158:-0.0034447767 159:-0.031546363 160:0.0080222569 161:0.029533599 162:0.035342563 163:-0.01633355 164:-0.024178408 165:-0.027953145 166:0.022395711 167:0.047458325 168:-0.0057678758 169:0.015979942 170:-0.026099584 171:0.02411644 172:0.0021601388 173:0.034536189 174:-0.04380904 175:-0.003784209 176:-0.016077295 177:-0.0088276007 178:-0.0011593333 179:0.0031522927 180:-0.021219248 181:0.023951922 182:-0.017782323 183:-0.047237009 184:0.0392001 185:0.0062099979 186:0.0097056548 187:0.015082235 188:-0.017804858 189:0.048412 190:-0.010480131 191:0.012020055 192:0.010855533 193:-0.065272854 194:-0.024024501 195:-0.00089974974 196:-0.062462261 197:-0.013374795 198:0.021401847 199:-0.011655085 200:0.0099073267 
0.18843847535660832 1:-0.19660204 2:-0.52699749 3:-0.37691258 4:0.23524749 5:-0.22372393 6:-0.12574664 7:-0.11582013 8:0.070701008 9:0.26596872 10:0.21117161 11:0.047272411 12:-0.043145489 13:-0.0063203648 14:-0.042323485 15:0.062210517 16:-0.16335419 17:0.11663111 18:0.0044899528 19:0.029398721 20:0.00096627459 21:-0.026261382 22:0.046383729 23:0.14163103 24:-0.043181689 25:-0.024514335 26:-0.17644028 27:0.13864517 28:-0.030519792 29:0.011212653 30:-0.0071362199 31:-0.013164158 32:0.085288209 33:-0.052561414 34:-0.060710387 35:-0.040345403 36:-0.058148165 37:0.11261941 38:0.091547955 39:-0.015652775 40:-0.042273377 41:-0.00023329964 42:0.03247879 43:0.025106709 44:0.046722721 45:-0.068668327 46:0.046518788 47:-0.017459024 48:-0.0066434025 49:0.031819358 50:-0.063145408 51:-0.008792519 52:-0.042473432 53:-0.048337255 54:0.024176869 55:-0.053105773 56:-0.044536421 57:0.10229929 58:-0.028589381 59:0.0092839314 60:-0.019432788 61:0.020026417 62:0.0015712967 63:-0.019885199 64:-0.021138705 65:0.067265492 66:-0.01404359 67:0.042318033 68:0.0011974919 69:-0.032032906 70:-0.059183997 71:0.040444633 72:-0.0062579767 73:-0.01446092 74:-0.048349997 75:0.030692215 76:0.056884095 77:0.0052642459 78:-0.00080307315 79:0.0075165084 80:-0.023570778 81:-0.0060857347 82:-0.010530607 83:0.057740665 84:-0.02299785 85:0.016803044 86:0.024357658 87:0.03623863 88:-0.0078551288 89:0.012377423 90:-0.015532235 91:0.015332473 92:0.040036616 93:-0.0045495236 94:0.012501846 95:-0.0042853714 96:-0.022219035 97:-0.0084426207 98:-0.00021079751 99:0.00039625836 100:-0.062729318 101:-0.019413646 102:-0.021200786 103:0.0071732773 104:-0.038974475 105:0.0087892102 106:0.0094383008 107:0.018796418 108:0.0082561486 109:-0.0013820998 110:-0.0074447128 111:-0.0045265196 112:0.052524893 113:0.042355598 114:0.024094916 115:-0.010036172 116:-0.015346275 117:0.043304864 118:-0.0073699592 119:-0.0028185779 120:0.011710768 121:-0.029682229 122:-0.036354225 123:-0.033803738 124:0.003207867 125:-0.040194319 126:0.02368066 127:0.0099365672 128:-0.038121297 129:0.011068282 130:-0.007498346 131:0.014910053 132:-0.027272013 133:0.016987974 134:0.027725609 135:0.0065837577 136:-0.012193889 137:0.020960497 138:0.0077430484 139:-0.012289639 140:0.013962085 141:-0.01463956 142:-0.067369554 143:0.035822796 144:0.00035484332 145:-0.057833411 146:-0.021313973 147:-0.024800228 148:0.0035978715 149:-0.0057146361 150:0.0031006009 151:0.0043800318 152:-0.0065272282 153:0.020699536 154:-0.032660127 155:-0.014734212 156:-0.0044023101 157:-0.0019214901 158:-0.0066972947 159:-0.0010262282 160:0.011492144 161:0.0047038827 162:0.014224673 163:-0.0081759155 164:0.00028830899 165:-0.024323679 166:0.004530491 167:0.0011291789 168:0.013104855 169:-0.017645031 170:0.020608478 171:0.021541349 172:-0.031223274 173:0.0024397687 174:-0.011307048 175:-0.0087972382 176:0.017131475 177:0.0028593496 178:0.010201249 179:-0.055600977 180:0.036877857 181:-0.0024831812 182:0.0089823524 183:-0.0057030298 184:-0.0063083199 185:0.010425047 186:0.0037742567 187:0.0090969185 188:-0.011885279 189:-0.0040575463 190:0.015138952 191:-0.0067528759 192:-0.0071638006 193:-0.009220378 194:0.033479873 195:-0.010386919 196:6.8260023e-05 197:-0.025441572 198:0.015177897 199:-0.0068577393 200:0.004728999 
1 1:0.4976237 2:-0.0097563609 3:-0.2073831 4:0.10431169 5:0.50952004 6:-0.028880178 7:-0.090797841 8:-0.024547271 9:-0.00029462326 10:0.085833262 11:-0.032104355 12:0.22593208 13:0.022237802 14:-0.15722155 15:0.09276477 16:-0.13320028 17:-0.083606386 18:0.0048980216 19:0.1878457 20:0.036828588 21:-0.0087617349 22:0.084324375 23:0.12661633 24:0.062880159 25:0.17660449 26:0.098283623 27:0.0056402586 28:0.095738784 29:-0.076842431 30:-0.060383611 31:0.032686262 32:0.0035977413 33:0.064501715 34:0.12807283 35:0.085787813 36:0.042069905 37:0.060359206 38:0.06116732 39:0.02036423 40:0.011023696 41:0.00085129491 42:-0.17379703 43:-0.046028233 44:-0.1323694 45:0.039318049 46:0.045050134 47:0.033239412 48:0.073525773 49:-0.0097468948 50:-0.10260753 51:0.059811597 52:-0.010561427 53:0.026119915 54:-0.029616087 55:-0.041134953 56:-0.036745256 57:0.024971725 58:0.014185116 59:0.031461071 60:0.041494327 61:-0.041097146 62:0.0043615017 63:0.00039944324 64:-0.0039990058 65:-0.050944122 66:0.0018513792 67:-0.00065009787 68:-0.024071467 69:-0.033104117 70:-0.045840308 71:-0.083659934 72:0.022600156 73:-0.042153094 74:-0.0020708105 75:-0.017327076 76:3.2701219e-05 77:0.0017721218 78:-0.010716714 79:-0.016679749 80:0.011192336 81:0.011217505 82:0.018995466 83:0.0089126256 84:0.04503388 85:0.025570854 86:0.0069882606 87:0.041202085 88:0.031537642 89:0.024631197 90:0.010236403 91:0.029284618 92:-0.02939709 93:-0.016389989 94:-0.0040443927 95:-0.024442307 96:-0.058837026 97:0.00033734409 98:-0.01317711 99:-0.0079179479 100:-0.060561233 101:-0.036077076 102:0.001430066 103:-0.010595351 104:-0.013579765 105:-0.019296862 106:-0.016565691 107:-0.0090886065 108:0.0066941885 109:-0.016056176 110:-0.014050333 111:0.0061655157 112:0.036623217 113:-0.00010500227 114:0.018145256 115:0.0092322291 116:0.0096302586 117:0.010123393 118:-0.00020236948 119:-0.0051244976 120:0.033008394 121:-0.03439972 122:-0.018426037 123:0.014269571 124:0.044884902 125:0.0029209093 126:0.016387449 127:0.0041801334 128:0.006385705 129:-0.019902454 130:-0.013143698 131:-0.017919197 132:0.031000922 133:0.00019152983 134:0.01503406 135:0.037699391 136:0.01599293 137:-0.011677102 138:0.0074028197 139:0.0022359097 140:-0.010019219 141:-0.0076992877 142:-0.026961958 143:0.0068241857 144:0.011997119 145:-0.0054300898 146:-0.011610311 147:0.0080938224 148:-0.0090212449 149:0.017713849 150:-0.031029798 151:-0.013102745 152:0.011257852 153:0.010230518 154:0.0043143636 155:-0.0135647 156:0.025500463 157:0.019139991 158:-0.0051740198 159:0.00340004 160:-0.0078183741 161:0.0058486266 162:-0.0045155315 163:-0.010332136 164:0.0056976405 165:0.0074244134 166:0.021019323 167:0.017088179 168:-0.0040494817 169:-0.02003231 170:-0.027005662 171:-0.036624642 172:0.009166274 173:0.026346337 174:-0.025077646 175:0.007066692 176:-0.023266761 177:0.015290064 178:-0.020237205 179:0.026990903 180:0.016522911 181:-0.013666477 182:0.006665244 183:-0.015898156 184:-0.0050146989 185:-0.026701316 186:-0.028290396 187:0.040761546 188:-0.0078749507 189:0.0099810647 190:0.021906394 191:-0.015803227 192:-0.02921293 193:0.011892589 194:-0.013935075 195:-0.010774234 196:0.0067567692 197:-0.0054151617 198:0.015509153 199:0.0038703659 200:-0.0054927305 
1 1:0.37477868 2:-0.54120385 3:-0.456982 4:0.040207027 5:0.097703824 6:-0.21968509 7:0.074120527 8:-0.046980985 9:0.146286 10:0.21242918 11:0.019446215 12:0.073494987 13:-0.045768938 14:0.10244361 15:0.0095383081 16:0.02949558 17:0.046038682 18:0.070308422 19:0.018412795 20:0.066216253 21:-0.0056281827 22:-0.1220624 23:-0.058628328 24:0.045111588 25:0.10212444 26:0.015851218 27:-0.19660761 28:0.01051025 29:0.077421985 30:-0.066386663 31:0.013737249 32:-0.0057158295 33:0.032191869 34:-0.023634322 35:-0.088369046 36:-0.033938597 37:-0.064301101 38:0.014658795 39:-0.036487795 40:-0.03041819 41:-0.03294742 42:0.039306678 43:-0.0077701429 44:-0.0021310057 45:0.0043554436 46:0.044800499 47:0.10449813 48:0.022500077 49:0.019300462 50:-0.028795383 51:-0.016032313 52:-0.047804417 53:-0.023082937 54:0.015403088 55:0.068632142 56:0.026407404 57:0.01611196 58:-0.041450612 59:0.063972102 60:0.040961763 61:0.07990845 62:-0.0088182215 63:0.011186729 64:0.047688081 65:0.015529228 66:-0.069325672 67:0.03797654 68:-0.039696181 69:0.044181953 70:0.026610545 71:0.0066573951 72:-0.0056009419 73:0.0069102716 74:0.0051431494 75:-0.022798336 76:0.030202505 77:-0.013389996 78:0.021424423 79:-0.010902201 80:0.00065092422 81:0.03278178 82:-0.014908499 83:-0.02440667 84:0.020295763 85:-0.03861692 86:0.020050785 87:0.0060093011 88:-0.030724705 89:0.013246727 90:-0.0522659 91:0.0088520853 92:0.040359577 93:-4.6402611e-05 94:-0.036761985 95:-0.0093193262 96:-0.0013360719 97:-0.023367654 98:0.0033936912 99:0.0092171928 100:0.003561196 101:0.019513059 102:-0.0069869383 103:-0.017490935 104:-0.0061558126 105:-0.011033478 106:0.020661532 107:0.037224535 108:0.010185343 109:-0.01822704 110:-0.013057889 111:0.031439773 112:-0.038166842 113:-0.016282156 114:-0.0024317569 115:0.0064108273 116:0.0035246249 117:-0.0028008174 118:0.022128621 119:-0.010509221 120:-0.0094776232 121:-0.0086060641 122:0.012507533 123:-0.01238269 124:0.034947274 125:0.023186793 126:0.02679503 127:-0.013833614 128:0.011912139 129:-0.03383649 130:-0.032375739 131:-0.025224321 132:-0.0024103404 133:0.0097869247 134:0.012426729 135:0.00067747629 136:0.035944413 137:-0.0018002925 138:-0.0083297667 139:-0.0045837031 140:0.0094280816 141:-0.018788429 142:-0.0024438518 143:0.034733508 144:0.014998211 145:-0.01891917 146:-0.028059314 147:-0.011109382 148:-0.0089545154 149:-0.011308526 150:-0.022199414 151:0.0097484497 152:-0.0085591209 153:-0.0098699095 154:0.024558639 155:-0.0019514669 156:-0.029831937 157:0.0028750982 158:-0.0095548223 159:0.0030530468 160:-0.0079147381 161:0.0033690673 162:0.0029237989 163:-0.02373401 164:-0.017579733 165:-0.007709796 166:0.01362777 167:-0.0075964317 168:-0.0046135136 169:-0.0061838617 170:-0.00435658 171:0.0067561042 172:0.0050160312 173:-0.013077046 174:0.041362126 175:0.0088254659 176:0.0047111701 177:-0.0012953835 178:0.014468938 179:0.011751551 180:-0.017256507 181:-0.014733997 182:-0.014755883 183:-0.0029671782 184:-0.0030498989 185:0.00064603047 186:0.0017568647 187:-0.0081376602 188:0.0091409761 189:-0.020555797 190:-0.0083997941 191:0.0023580786 192:-0.014022665 193:-0.013456822 194:-0.019036355 195:-0.0028585266 196:0.022435938 197:-0.015844959 198:-0.02716454 199:-0.002695542 200:-0.014736556 
0.52997506058622379 1:0.49729911 2:-0.05852434 3:0.0068637274 4:0.042557375 5:-0.20456441 6:0.50115435 7:-0.005720144 8:-0.14735525 9:-0.026153068 10:0.143336 11:-0.048047376 12:0.12552351 13:-0.030056127 14:-0.20142172 15:0.037898535 16:0.12393593 17:-0.056677719 18:-0.16826976 19:-0.22485778 20:-0.019505229 21:-0.0017698099 22:-0.029625782 23:-0.0407642 24:-0.034137704 25:-0.20912987 26:0.039712891 27:-0.00064719337 28:0.035188861 29:-0.12994441 30:-0.072039888 31:-0.10981745 32:-0.014877574 33:0.018464602 34:0.011001141 35:-0.013045283 36:-0.032412707 37:-0.048024619 38:0.011519127 39:0.047706511 40:0.041022594 41:-0.069897285 42:0.0012106632 43:0.059192713 44:0.00447864 45:0.006056111 46:-0.0434258 47:-0.011797612 48:-0.074816063 49:0.033921522 50:0.023739886 51:-0.038189894 52:-0.018807444 53:0.047593636 54:0.0055882937 55:0.026265651 56:0.028153385 57:-0.071896956 58:-0.016815978 59:-0.048220765 60:-0.086880281 61:-0.011783247 62:0.082465624 63:-0.014602913 64:-0.028208909 65:-0.047330663 66:0.097998907 67:-0.013863409 68:-0.081721983 69:0.031570205 70:-0.065990295 71:-0.041638023 72:0.058913068 73:0.048899179 74:-0.027922882 75:-0.012645489 76:-0.021691702 77:0.022769736 78:0.10458507 79:0.038364863 80:-0.011294255 81:0.016304373 82:-0.0037108118 83:0.015774735 84:0.084674961 85:-0.0041597676 86:0.010280463 87:-0.024871639 88:0.034276877 89:-0.01788876 90:0.0052318275 91:0.021245282 92:0.0091747121 93:-0.0096702371 94:-0.018540384 95:-0.040847337 96:0.0034920876 97:0.017047594 98:-0.023935109 99:0.026830662 100:0.023759042 101:0.012437078 102:-0.016438958 103:-0.020498973 104:-0.022584354 105:-0.010737267 106:0.0078364284 107:-0.017807084 108:-0.049974874 109:0.063572556 110:0.0014208396 111:-0.00014676712 112:-0.057428171 113:0.029109208 114:0.014967652 115:-0.030863636 116:-0.0074435005 117:-0.0199276 118:0.027094436 119:-0.026758246 120:-0.0049386638 121:-0.023062029 122:0.024865129 123:0.019035385 124:0.059350671 125:-0.020996051 126:-0.047670514 127:0.014663968 128:0.017151631 129:-0.044087537 130:-0.014124749 131:-0.051068425 132:0.011409727 133:-0.0245152 134:0.019255471 135:0.019610122 136:-0.022344122 137:-0.013209174 138:0.016984083 139:-0.013073104 140:0.015921252 141:-0.011767533 142:0.01065119 143:-0.00070531733 144:-0.0027315327 145:-0.016250294 146:0.033739129 147:0.0012018852 148:-0.0039599793 149:0.015737233 150:0.014435107 151:-0.00014884673 152:-0.0054068417 153:0.019206938 154:-0.0012455949 155:-0.013521357 156:0.00034034484 157:-0.0066865869 158:0.0035211374 159:0.00039525755 160:-0.0013428914 161:-0.0084627676 162:-0.020667035 163:0.022446789 164:-0.033838676 165:0.020408535 166:0.0020069039 167:-0.049275481 168:-0.039371264 169:0.012172035 170:-0.0045386657 171:-0.010175247 172:-0.046495604 173:0.020742369 174:0.02657776 175:-0.025823983 176:0.031606871 177:-0.023262385 178:-0.018016769 179:0.01480048 180:-0.026270286 181:-0.014100624 182:0.0059030065 183:-0.019507139 184:0.0048304313 185:0.011184158 186:-0.0091665295 187:0.019636083 188:0.0027375915 189:0.0033466013 190:-0.01214989 191:0.003695265 192:0.010286133 193:0.014517352 194:-0.0037647105 195:0.00149827 196:-0.014710367 197:-0.038632807 198:-0.01031093 199:0.0051808656 200:-0.030809977 
1 1:0.79226216 2:-0.17485217 3:-0.22469351 4:-0.14506283 5:0.031916114 6:0.11683665 7:0.085045191 8:0.12122825 9:0.044837304 10:0.2613711 11:0.033167147 12:0.0010132051 13:-0.020944171 14:0.12774802 15:0.066760727 16:0.1911254 17:-0.062389839 18:0.075610203 19:-0.05274505 20:0.065104569 21:-0.025970134 22:0.13215169 23:-0.035045903 24:0.05465873 25:-0.049709948 26:0.089044206 27:-0.023920565 28:0.011572759 29:0.049388635 30:0.0044078672 31:0.024592177 32:0.022624188 33:-0.0088458073 34:-0.024366756 35:0.0084862006 36:0.044074264 37:-0.032090594 38:0.066492335 39:0.0079941942 40:-0.0099918308 41:0.0081409107 42:-0.025643082 43:-0.023894335 44:0.0041519523 45:-0.017684926 46:0.044298875 47:-0.011237044 48:0.0038249358 49:-0.036390937 50:0.045090458 51:0.03282593 52:0.05501141 53:0.02763421 54:0.018467589 55:-0.0098503175 56:-0.0060435334 57:0.012156144 58:-0.015630402 59:-0.0029463276 60:-0.0034468906 61:0.040053456 62:0.029101069 63:0.0050996717 64:-0.0030274923 65:0.02133681 66:-0.028238273 67:0.0016313714 68:0.0090276933 69:-0.0090486966 70:-0.0055953557 71:0.015607725 72:0.0090711712 73:-0.025781845 74:-0.0070102387 75:-0.01305331 76:-0.015571613 77:0.015350688 78:0.0013791981 79:0.029721706 80:0.0023234949 81:0.0010966943 82:0.024569231 83:-0.020652158 84:0.011814598 85:0.0089697512 86:0.039403366 87:0.04959571 88:0.0072584069 89:-0.018982358 90:0.0074762441 91:-0.0023776053 92:0.019153669 93:-0.03438765 94:0.00070171362 95:0.018409868 96:-0.032558045 97:0.0052753784 98:-0.00086585458 99:-0.0024402851 100:0.0020798391 101:-0.010477301 102:-0.0049677493 103:-0.0086537381 104:0.008517977 105:-0.0055419572 106:0.001232934 107:0.025162238 108:-0.0251118 109:-0.0016558582 110:0.010507829 111:-0.010420729 112:0.0059345828 113:0.0011688643 114:-1.9413026e-05 115:-0.0091752666 116:0.021987267 117:-0.005052944 118:0.013097116 119:0.0022884362 120:-1.9498953e-05 121:0.016251674 122:0.0021696777 123:-0.014282458 124:0.0054505706 125:-0.0098470514 126:-0.00046779014 127:-0.012368382 128:-0.010944412 129:-0.015476426 130:0.0057921958 131:0.021301376 132:-0.00010061622 133:-0.0022431421 134:-0.007651742 135:-0.0081522843 136:-0.019346299 137:-0.0085675972 138:0.01103157 139:-0.0093315484 140:-0.02304862 141:0.001636866 142:0.012069031 143:-0.013279186 144:-0.0078306259 145:-0.004622901 146:-0.0041068483 147:-0.022544765 148:-0.003537008 149:0.0096375302 150:0.0062972062 151:0.0025515481 152:-0.0020083589 153:0.017577066 154:0.0014083076 155:0.011379919 156:-0.00085275674 157:0.011512252 158:0.00062453505 159:0.0041302302 160:0.0038162936 161:0.010200454 162:-0.0014976871 163:-0.011599447 164:0.0071498312 165:0.0051797652 166:-0.0064316849 167:0.0091271545 168:0.022485576 169:0.0082815376 170:0.01511345 171:0.013317339 172:-0.016477872 173:0.0096027412 174:0.0039612306 175:0.00027041972 176:0.008656474 177:0.011452978 178:0.0060040411 179:-0.0027636727 180:-0.0078312759 181:-0.014605517 182:-0.0035094191 183:0.00020078302 184:0.01307647 185:-0.025251367 186:0.017946166 187:-0.012754238 188:0.024569781 189:0.017855956 190:0.010893097 191:-0.012543325 192:-0.0032588362 193:0.0030985714 194:0.0085408343 195:-0.017712013 196:-0.02070722 197:-0.027597704 198:-0.0039137417 199:0.022144509 200:0.015750689 
0.43498656116585421 1:0.26039006 2:0.24835939 3:-0.16684724 4:-0.24455038 5:-0.27558369 6:0.34618094 7:0.047319732 8:-0.10719105 9:-0.13939678 10:0.009776585 11:-0.16043495 12:0.1982751 13:-0.01784595 14:-0.35421729 15:0.043485707 16:0.080298085 17:-0.033478689 18:-0.095149312 19:-0.17551287 20:0.01803431 21:0.17013203 22:-0.15323102 23:-0.050093422 24:-0.045877201 25:-0.14424045 26:0.12077636 27:0.019347055 28:0.021506937 29:-0.10173714 30:0.057747645 31:-0.077226795 32:0.061570161 33:-0.056213018 34:0.063704423 35:-0.062184758 36:-0.035406709 37:-0.0019039141 38:0.11824238 39:0.12342683 40:0.0094589448 41:-0.098471888 42:-0.1233603 43:0.17598711 44:0.037845377 45:-0.06918611 46:-0.010643849 47:0.091537641 48:-0.050155577 49:-0.03367517 50:0.044825908 51:0.023621938 52:0.00064000383 53:-0.020240255 54:-0.041126513 55:-0.00032298559 56:-0.011895058 57:0.085790699 58:0.01678897 59:0.07510316 60:0.081980112 61:0.02917553 62:-0.0051126205 63:0.0052287517 64:0.02885304 65:-0.0089968009 66:-0.032089937 67:-0.0079767469 68:0.0570888 69:-0.042755905 70:0.079832716 71:0.048753548 72:-0.054720999 73:-0.07182651 74:0.041638889 75:0.017607837 76:0.033679984 77:-0.007271052 78:-0.083167828 79:-0.015193936 80:0.033538352 81:0.026245301 82:0.0097959905 83:-0.0069118574 84:-0.034394111 85:0.010660722 86:-0.0092005767 87:0.012662897 88:0.00036998125 89:0.001221822 90:0.0066760585 91:-0.00843468 92:0.0096614491 93:0.042758769 94:0.0048292367 95:-0.0053177095 96:0.016259175 97:-0.031376783 98:0.025274011 99:-0.019141492 100:-0.0020816432 101:-0.0073235103 102:0.011768826 103:0.010078412 104:0.0050899327 105:0.021751313 106:-0.018947283 107:0.0091540075 108:0.0068181524 109:-0.0039553243 110:-0.00261446 111:-0.01263273 112:0.011885764 113:0.00102876 114:-0.0043232337 115:-0.0010429929 116:-0.025352606 117:0.0026377947 118:-0.01352889 119:0.011534979 120:-0.024135565 121:0.011155483 122:-0.00087966679 123:0.012622606 124:0.0037858108 125:-0.0072070275 126:0.0088980807 127:-0.0067990663 128:-0.0090946368 129:0.0080657108 130:0.00075445923 131:-0.001192643 132:0.012944424 133:-0.0049541619 134:0.020002182 135:-0.0061355201 136:0.0089744434 137:0.0062918495 138:-0.00085954582 139:0.0056601044 140:-0.037422263 141:-0.0077050302 142:0.015842976 143:-0.0040712935 144:-0.0098388697 145:-0.0050110872 146:0.006164386 147:0.0074465615 148:0.0094271814 149:-0.011239922 150:-0.014409083 151:-0.01174387 152:0.0054336859 153:0.0049883887 154:0.016030479 155:-0.030978458 156:-0.0048696771 157:-0.012602152 158:-0.01439403 159:0.005215532 160:0.0028163482 161:-0.0061582182 162:-0.0075780423 163:0.0038426127 164:-0.001353717 165:-0.0035729394 166:-0.02934554 167:0.011150237 168:0.0013620426 169:-0.012476464 170:-0.022436671 171:-0.0032557003 172:-0.0097399643 173:-0.0014664654 174:-0.0069183347 175:-0.026955483 176:-0.0013586296 177:-0.0084190423 178:0.0020991615 179:-0.017484158 180:-0.009495155 181:-0.0065846114 182:0.0109169 183:-0.00074789006 184:-0.00080705215 185:-0.0071530378 186:0.00020046913 187:0.0050034628 188:-0.0084744321 189:-0.0036586361 190:-0.0031789286 191:-0.0016460545 192:0.0099001313 193:-0.00333814 194:0.0023485833 195:0.011525212 196:0.015848435 197:0.0022588585 198:-0.0028762067 199:-0.0063711675 200:0.00012068973 
1 1:-0.31417246 2:0.66228869 3:-0.34271447 4:-0.21275067 5:0.0081161658 6:-0.089362589 7:-0.097679518 8:0.00032098875 9:-0.13638257 10:0.048004284 11:0.080307945 12:0.16160197 13:-0.10812349 14:0.027385721 15:0.059274585 16:-0.035707201 17:0.17368477 18:0.026337751 19:0.0021206932 20:-0.10938855 21:0.11336019 22:-0.030852256 23:-0.09429637 24:-0.023169489 25:0.018825966 26:-0.012095859 27:0.003070804 28:-0.0042631355 29:-0.045115926 30:-0.062370828 31:-0.023521587 32:0.051140703 33:0.050165364 34:-0.058338299 35:0.0084630331 36:0.055722147 37:-0.023590393 38:-0.076542373 39:-0.024577071 40:0.040047076 41:0.10089954 42:-0.013781507 43:0.016062289 44:0.090280783 45:0.013857497 46:-0.026327645 47:-0.065930074 48:-0.050365898 49:0.00056098428 50:-0.017679464 51:0.004383409 52:0.051138029 53:0.036913295 54:-0.08161456 55:0.017740521 56:0.034795021 57:-0.018979674 58:-0.075630557 59:-0.036817528 60:0.057233004 61:0.0026503247 62:0.00028168016 63:-0.013854985 64:0.044038419 65:-0.033642738 66:-0.0023033025 67:0.054030559 68:-0.064318499 69:-0.02212294 70:0.011982145 71:0.0013082776 72:0.0073191152 73:-0.032330593 74:0.019654288 75:-0.029566792 76:-0.021434655 77:-0.029119248 78:-0.017511022 79:-0.047215114 80:0.017865848 81:0.054936827 82:-0.0011836378 83:-0.0010078132 84:0.037975563 85:-0.0091352519 86:0.019792657 87:-0.0050201016 88:0.0033881892 89:0.043545128 90:-0.0065758797 91:-0.022258855 92:0.0045050314 93:0.0037325148 94:0.02822461 95:0.013433153 96:-0.0056781486 97:0.0053028115 98:-0.032709429 99:0.023499789 100:-0.01490652 101:0.027815355 102:0.0049653294 103:-0.0080142275 104:0.043418048 105:0.066235307 106:-0.051507336 107:0.0011151835 108:0.028688451 109:0.020570986 110:0.0077311611 111:0.0058349043 112:0.032078935 113:0.013409325 114:0.0012338183 115:0.013115804 116:-0.0072886498 117:0.0047484282 118:0.018280802 119:0.0094860258 120:-0.004837265 121:-0.011481894 122:0.00081133872 123:0.01859966 124:-0.024762835 125:-0.033953274 126:-0.012015364 127:0.011932203 128:-0.01940136 129:-0.014515816 130:0.0067553697 131:0.016693521 132:0.024629233 133:-0.0057678661 134:-0.015827968 135:-0.0083064364 136:-0.018534741 137:0.0044566549 138:-0.032474058 139:0.035822518 140:0.037897664 141:-0.022586339 142:-0.019941917 143:-0.024559589 144:0.024657914 145:0.033198054 146:-0.02036145 147:0.009247751 148:0.01125213 149:-0.0096761593 150:0.0069158527 151:-0.01307418 152:0.0083858902 153:-0.0028490746 154:-0.0076487625 155:-0.018613714 156:-0.041391021 157:0.011116456 158:0.019432699 159:0.015393161 160:-0.0042969414 161:-0.00056215617 162:0.0039699704 163:-0.039391372 164:-0.0025467464 165:-0.021528627 166:0.028244351 167:0.020878506 168:-0.011994863 169:-0.018349395 170:0.030035206 171:0.022471546 172:0.014917419 173:-0.0083647972 174:-0.0026118319 175:-0.011993026 176:0.00050180273 177:0.028249194 178:-0.011710354 179:0.016056857 180:0.014219599 181:-0.02437449 182:0.01160604 183:-0.006710975 184:-0.025179413 185:0.01645272 186:0.00026975504 187:-0.021445787 188:0.012201427 189:-0.018057498 190:0.01029117 191:0.01441306 192:0.029173237 193:0.022425896 194:-0.0050352527 195:-0.0044998603 196:-0.0014239821 197:-6.2092723e-05 198:0.0093243095 199:-0.023895848 200:-0.0041714318 
0.42571477893979787 1:-0.16070109 2:-0.48778793 3:0.18646447 4:0.19973717 5:-0.34996875 6:0.085385421 7:0.026813742 8:0.19091166 9:0.21015853 10:0.00061691862 11:-0.035336194 12:-0.16125958 13:0.11541569 14:-0.11177122 15:-0.057086612 16:-0.026237737 17:-0.066731545 18:0.23361777 19:0.0055147613 20:-0.039220216 21:0.0083001846 22:0.085367735 23:0.090861592 24:0.10285307 25:0.057737291 26:0.096527324 27:-0.083778512 28:-0.035552662 29:-0.088117273 30:-0.0079941556 31:0.11733573 32:-0.061219279 33:0.019931985 34:-0.041152254 35:-0.056266954 36:-0.0028189118 37:0.092278668 38:0.057160168 39:-0.038966963 40:0.11390999 41:0.026434559 42:0.072313217 43:0.05122097 44:0.0012869464 45:-0.015852276 46:0.01912891 47:0.0082696806 48:0.10956186 49:-0.079207227 50:0.069074323 51:0.045616579 52:0.031460984 53:0.025006043 54:-0.11548855 55:-0.0036951158 56:-0.059580473 57:0.014534786 58:0.062498749 59:-0.069337109 60:0.029769654 61:0.025286639 62:-0.0063342741 63:-0.093005026 64:-0.08603789 65:0.060124161 66:-0.10920872 67:0.065842145 68:-0.044443252 69:-0.0029511291 70:-0.013868313 71:-0.00094485191 72:0.03781378 73:-0.014067308 74:0.0033963903 75:-0.033582928 76:0.022989782 77:0.011867839 78:0.024254886 79:-0.029486765 80:0.01047227 81:0.01662648 82:-0.0089149048 83:0.017352086 84:-0.064258794 85:0.082565389 86:0.05137476 87:-0.015516256 88:0.01002999 89:0.027823849 90:0.0029317129 91:-0.011467098 92:-0.012017719 93:0.043836768 94:-0.011897243 95:0.0022128165 96:-0.038969932 97:-0.048739771 98:-0.070090127 99:-0.00778366 100:0.049188839 101:-0.076981491 102:-0.02072056 103:-0.018518979 104:-0.00053629098 105:0.018282014 106:0.060245271 107:-0.029121455 108:-0.022516297 109:-0.039920859 110:0.003839275 111:0.0049485781 112:0.028971769 113:-0.043812533 114:0.056068388 115:0.023190109 116:0.038952264 117:0.0018121911 118:0.068488266 119:-0.048538302 120:0.019017695 121:0.031816339 122:0.031683043 123:-0.026534351 124:-0.013604049 125:-0.0063439768 126:-0.022977823 127:0.011331206 128:0.045377168 129:0.0062534901 130:-0.021620452 131:-0.019265588 132:0.031295847 133:0.04311059 134:0.043841258 135:0.045599591 136:-0.00050633974 137:0.0084980167 138:0.014994614 139:-0.026452358 140:-0.0023901765 141:0.00049244436 142:-0.046069377 143:0.0048605965 144:0.07512699 145:0.014074829 146:0.02088702 147:-0.060701246 148:0.019273229 149:0.024400984 150:-0.041741611 151:-0.033002919 152:-0.078891189 153:-0.00027609928 154:0.026005486 155:-0.035112607 156:0.03629416 157:-0.026242042 158:0.0059380554 159:0.022858854 160:-0.015397341 161:-0.023666055 162:-0.045231935 163:-0.010671372 164:-0.04226033 165:0.015459562 166:0.012676683 167:0.050098101 168:0.001769662 169:0.012704383 170:0.032785647 171:-0.0058174389 172:0.019137555 173:0.061684946 174:0.029444657 175:-0.021745589 176:0.035277408 177:0.017726431 178:0.042208798 179:-0.013634473 180:-0.0069154472 181:-0.0048267621 182:-0.019202525 183:0.014963643 184:0.0013210172 185:0.010859411 186:0.02611709 187:-0.01280664 188:0.027585344 189:-0.022772388 190:0.010332029 191:-0.014331007 192:0.0023362485 193:0.029052023 194:0.0027716058 195:-0.035923722 196:0.0023632648 197:-0.0013709952 198:0.0039342102 199:0.00033443862 200:-0.002313413 
0.90691533932297752 1:-0.83314146 2:0.25455275 3:-0.19009521 4:0.17415279 5:-0.010279189 6:0.028372585 7:0.065780113 8:0.028107362 9:-0.10454452 10:-0.11371358 11:-0.050772807 12:-0.17917949 13:0.029422198 14:-0.024780862 15:-0.072049863 16:-0.078007391 17:0.081506422 18:-0.11865051 19:0.049473592 20:0.0020986864 21:0.093234475 22:0.052835314 23:-0.060809019 24:0.029182773 25:0.055978757 26:-0.065477391 27:0.02272948 28:0.012135437 29:0.015341233 30:0.041511244 31:0.039887128 32:-0.0019187723 33:0.0099199325 34:0.035624649 35:-0.020824369 36:-0.024509813 37:-0.045712969 38:-0.028845776 39:-0.033066798 40:0.012557223 41:0.017708701 42:0.01351454 43:-0.012814198 44:0.04673972 45:-0.024244105 46:0.020815604 47:0.019781068 48:-0.0099173859 49:-0.024198957 50:0.013304215 51:0.031196902 52:-0.0078089793 53:0.01100599 54:0.018712229 55:-0.0023350967 56:0.02851511 57:0.0027125349 58:-0.013114356 59:0.0038433702 60:0.02205298 61:-0.0069865148 62:0.062117438 63:-0.017698442 64:-0.014954978 65:0.024746849 66:-0.01419698 67:-0.049354239 68:0.0044842365 69:0.025587601 70:-0.00073252566 71:0.0059356452 72:-0.0080598716 73:0.015019002 74:0.014909484 75:0.010710699 76:-0.0099054344 77:0.013344012 78:0.016739581 79:-0.0024809642 80:0.0077188062 81:-0.0079041156 82:-0.0049541768 83:-0.001534895 84:0.01156685 85:-0.0024506414 86:-0.072635547 87:0.0020302244 88:-0.012070101 89:-0.033745539 90:-0.019294777 91:0.0034596957 92:0.017972099 93:0.0066587304 94:-0.013009284 95:-0.020522707 96:-0.010655024 97:0.0247114 98:0.015255011 99:-0.028853777 100:0.0024443154 101:-0.019887185 102:0.0030878378 103:-0.026646363 104:-0.018336023 105:0.0049986164 106:-0.012582476 107:-0.013143039 108:0.0081934694 109:-0.016970985 110:-0.020012221 111:0.0048407757 112:0.0032949035 113:-0.025158429 114:-0.014284093 115:-0.0012197014 116:0.003016272 117:-0.0053696841 118:0.0059108615 119:-0.0010111963 120:-0.0076158642 121:0.0092274356 122:-0.017959111 123:0.03228271 124:0.01132742 125:0.0028874053 126:-0.0086122019 127:0.01810349 128:0.020348065 129:0.013915764 130:0.0083559204 131:0.0097997232 132:-0.0023887094 133:0.009833487 134:0.0065105426 135:0.01623864 136:-0.017055223 137:-0.017816772 138:0.029164305 139:0.010619715 140:0.00074931413 141:0.0048928128 142:-0.0056522072 143:0.0028148645 144:0.0012768735 145:0.0024195615 146:0.010496452 147:0.00091599364 148:0.009022392 149:0.012991577 150:-0.001598999 151:-0.016093862 152:0.00075974337 153:0.0026770094 154:-0.0029431549 155:0.0051093196 156:0.0050641446 157:-0.00048018226 158:0.010266852 159:-0.0040146333 160:-0.0037831633 161:0.0008607582 162:-0.0031449463 163:0.026715256 164:0.0035689109 165:-0.0090260846 166:-0.0045771905 167:-0.010680177 168:0.01405748 169:0.00061361249 170:0.0039664546 171:-0.005619324 172:-0.0014787017 173:-0.0081186681 174:-0.017499191 175:-0.00051238713 176:0.0097119174 177:-0.008184139 178:-0.0042954908 179:0.010298714 180:-0.0013229709 181:-0.0017490581 182:0.0068965081 183:0.0075345034 184:-0.0055768189 185:-0.0024674164 186:-0.00042188895 187:-0.0089492944 188:0.0014868636 189:-0.0048275444 190:0.00081927077 191:0.0025322193 192:-0.00025976772 193:-0.0060272998 194:-0.013563392 195:0.0096503925 196:0.017173617 197:-0.0051641346 198:-0.0074261068 199:-0.010880226 200:0.0046829313 
1 1:0.81729653 2:-0.21490748 3:0.12876892 4:0.060451045 5:0.055708293 6:-0.0019979082 7:0.18322956 8:-0.10379181 9:0.045743684 10:-0.086960255 11:0.030114648 12:-0.01390455 13:0.069458893 14:0.076220683 15:0.027692651 16:0.068939096 17:0.094411751 18:0.084625483 19:-0.059180257 20:0.088826363 21:-0.016406812 22:0.052316791 23:-0.089505255 24:-0.061715984 25:-0.069385604 26:0.068956625 27:-0.14186504 28:0.03352004 29:-0.015444796 30:0.01302059 31:0.09302817 32:-0.04918017 33:0.033095262 34:0.017402857 35:0.061492403 36:-0.003743644 37:0.037541927 38:0.076239788 39:-0.015232519 40:0.037076583 41:-0.0042840345 42:-0.037993465 43:0.05021648 44:-0.027187373 45:-0.019517894 46:0.021099639 47:-0.021066576 48:-0.052498663 49:-0.0090728497 50:-0.038624167 51:0.03059457 52:-0.037671344 53:0.077323274 54:-0.012475616 55:-0.022494861 56:0.034787896 57:0.010707811 58:-0.031746915 59:-0.0052564262 60:-0.030687566 61:0.030947337 62:0.013184217 63:-5.1418189e-05 64:-0.015922994 65:-0.00057480937 66:0.022729062 67:-0.0062653552 68:-0.0203971 69:-0.042211352 70:0.004832425 71:0.0081218873 72:0.042124889 73:5.779431e-05 74:0.023823734 75:-0.036784936 76:0.020140184 77:-0.030033804 78:-0.0036230568 79:-0.041674861 80:-0.002474672 81:0.043703819 82:0.027478778 83:0.0366058 84:-0.028197466 85:0.0087179104 86:-0.014903182 87:0.011761024 88:0.0057854662 89:-0.0027389222 90:-0.003687468 91:-0.049634921 92:-0.039907847 93:-0.032432033 94:-0.0057853634 95:0.017977611 96:0.038751046 97:0.03290416 98:0.045110026 99:-0.060340215 100:-0.0081327772 101:0.0015053749 102:-0.023689122 103:0.025530841 104:-0.01963065 105:0.0046402518 106:0.010498867 107:-0.037501035 108:0.047205207 109:0.014013914 110:-0.008996842 111:0.0025155578 112:0.0043321871 113:-0.0061868686 114:-0.028139247 115:0.023495269 116:0.009329038 117:-0.010755402 118:-0.005142217 119:-0.039787322 120:-0.018553099 121:-0.0023293314 122:0.033416155 123:0.013860847 124:0.035546167 125:-0.01781458 126:0.017372891 127:0.010149622 128:-0.011995392 129:0.017905606 130:-0.01415033 131:-0.0039353301 132:0.0059275018 133:0.013028925 134:-0.016044724 135:0.014044207 136:0.0019040898 137:0.021223436 138:-0.017878342 139:-0.012388223 140:-0.039933932 141:0.0042453389 142:-0.042255901 143:-0.011920249 144:0.010572211 145:0.0014060969 146:0.003726545 147:-0.0046763936 148:-0.0041768055 149:-0.0013875956 150:0.042103429 151:-0.017580435 152:0.017927034 153:-0.026511378 154:-0.046428748 155:0.010687189 156:-0.00023486315 157:0.0089252199 158:0.029910048 159:-0.0018181847 160:-0.0040955214 161:0.0080156813 162:-0.05923652 163:-0.027505924 164:0.027507676 165:0.010792148 166:0.010307058 167:0.0076020844 168:-0.0065522135 169:-0.0061294086 170:0.0095836082 171:0.026460677 172:-0.010383259 173:-0.024588372 174:-0.0038539599 175:-0.020858251 176:0.0038622754 177:0.0024307793 178:-0.02577001 179:-0.025754442 180:-0.0028146191 181:-0.00058525635 182:-0.0091718039 183:-0.0019795062 184:-0.00065665488 185:-0.026860236 186:0.026378178 187:0.020258431 188:0.036884169 189:0.015972674 190:-0.02454473 191:0.023594896 192:0.011749494 193:0.01901171 194:0.0062671723 195:-0.0088239586 196:-0.015856651 197:-0.01379775 198:-0.018330919 199:0.015286829 200:-0.0024965942 
0.89093892207028325 1:-0.42414586 2:-0.16330101 3:-0.45297313 4:0.062786401 5:0.05029457 6:-0.055723899 7:0.0043620879 8:-0.10889708 9:-0.16873482 10:0.073580729 11:0.17100781 12:0.17889359 13:-0.27349975 14:-0.29717636 15:-0.10252885 16:-0.05120312 17:0.061539044 18:0.002996023 19:-0.12233933 20:-0.066210642 21:-0.05586985 22:0.088765747 23:-0.13914316 24:-0.12419668 25:0.034518921 26:0.050189946 27:-0.081348653 28:-0.0087734742 29:0.013381281 30:0.077634005 31:0.018576455 32:0.0017599038 33:0.061286022 34:-0.036235089 35:-0.016955482 36:-0.082184887 37:-0.047768353 38:-0.044083725 39:0.045382896 40:0.090045329 41:0.086081507 42:-0.0049321758 43:-0.068985973 44:-0.02189472 45:0.015074602 46:-0.027421719 47:-0.010792942 48:-0.06631155 49:0.055462497 50:0.017228322 51:-0.028405585 52:0.0069671185 53:-0.011481179 54:0.030838737 55:-0.079293659 56:-0.049616745 57:0.040298198 58:-0.036537426 59:-0.050332812 60:0.032401355 61:-0.047885101 62:0.015990084 63:-0.070054088 64:-0.00086344377 65:-0.042440281 66:-0.0042442 67:0.012839106 68:0.0053030724 69:0.057967633 70:-0.05825676 71:0.040911171 72:-0.025192385 73:0.0052126153 74:-0.012167697 75:0.049420083 76:-0.037630081 77:-0.018020842 78:0.055800124 79:-0.0026961468 80:-0.033199199 81:-0.036997446 82:-0.045589628 83:-0.041120607 84:0.017811318 85:-0.046708966 86:-0.03201049 87:0.026272058 88:-0.083727791 89:-0.027886779 90:0.037069549 91:-0.024831503 92:0.010071927 93:-0.018534069 94:-0.018688328 95:-0.0036057754 96:0.037939375 97:0.029792601 98:0.10928582 99:0.0052557834 100:-0.0043926306 101:-0.0031568959 102:0.006152233 103:0.0030498392 104:-0.0067487248 105:-0.058311988 106:-0.035610173 107:0.011253398 108:0.0066262164 109:0.019299093 110:0.050939308 111:-0.020774655 112:-0.022739833 113:-0.0041056465 114:0.01774091 115:0.019119616 116:0.064189619 117:0.023489112 118:0.00036135993 119:0.02679742 120:-0.030286317 121:-0.031643397 122:0.020882609 123:-0.014776103 124:0.0070479956 125:0.001521196 126:0.005719 127:-0.00036698449 128:-0.0042765942 129:0.046448654 130:-0.044071841 131:0.01578398 132:-0.012738077 133:-0.013966044 134:0.013929703 135:0.034611365 136:0.012817464 137:-0.021944292 138:0.02279236 139:0.085641981 140:-0.0087931187 141:-0.010174957 142:0.012948396 143:0.020828104 144:-0.027239571 145:-0.035677857 146:-0.0036720713 147:0.020216631 148:-0.027476345 149:0.050193144 150:-0.020575139 151:0.011741467 152:-0.042220719 153:-0.013102874 154:0.0006322516 155:0.024380047 156:0.0076057371 157:0.02594193 158:0.029028962 159:-0.014528394 160:-0.0090428122 161:-0.022316232 162:0.020646846 163:-0.00053360905 164:0.018380168 165:0.027531932 166:-0.024943613 167:-0.012599335 168:0.033669659 169:-0.0034865948 170:-0.048252733 171:0.0102281 172:0.090764905 173:-0.039420265 174:0.028921106 175:0.00088385798 176:-0.036588853 177:-0.047904599 178:-0.024022254 179:-0.0066845425 180:0.0067918107 181:0.011943 182:0.013020877 183:0.030257529 184:0.0066500568 185:-0.039864701 186:-0.014326505 187:0.0054748151 188:0.034629844 189:-0.022535341 190:0.064838465 191:-0.03308227 192:-0.045217349 193:0.047124025 194:0.018138838 195:0.015709615 196:-0.0053175166 197:-0.033863422 198:-0.023733343 199:-0.026709313 200:-0.021993952 
1 1:-0.012259885 2:0.33068182 3:-0.10498572 4:-0.22129188 5:0.27976253 6:-0.095135745 7:0.2655037 8:0.090997949 9:-0.2065313 10:0.13188281 11:0.08044583 12:-0.028594229 13:-0.229157 14:-0.0094407755 15:-0.0040896559 16:-0.18189179 17:-0.15267202 18:0.066544084 19:0.045133364 20:-0.16714725 21:0.0053012225 22:0.043895412 23:-0.13738284 24:-0.059487099 25:0.048172459 26:0.014233028 27:0.072942428 28:0.035111109 29:0.028563945 30:-0.028159299 31:-0.048923738 32:-0.029657449 33:0.065959099 34:0.013989533 35:-0.080975243 36:0.060378752 37:-0.19878225 38:-0.038200635 39:-0.0072356625 40:0.0061686046 41:-0.057487137 42:-0.092161555 43:0.0019243737 44:0.074486361 45:-0.058731377 46:0.040624164 47:-0.10680734 48:0.0098859095 49:-0.031506585 50:0.058203266 51:-0.12349082 52:0.014742758 53:-0.093815177 54:-0.095491291 55:-0.013715081 56:-0.072666505 57:-0.038282188 58:-0.088763141 59:0.052786664 60:0.034958137 61:-0.045232854 62:-0.086123084 63:0.072131274 64:0.095915791 65:0.038844268 66:0.03337731 67:-0.080644466 68:-0.025886785 69:0.054924518 70:-0.0064238517 71:0.052104487 72:-0.033077592 73:-0.0001651085 74:0.049087078 75:-0.01871239 76:0.041631474 77:0.062069788 78:0.059671051 79:-0.037736429 80:0.017765738 81:-0.12539209 82:-0.014140842 83:0.049153053 84:-0.034572592 85:0.023467469 86:0.0060725689 87:0.11599199 88:-0.047092839 89:-0.0030703982 90:-0.0289705 91:-0.0087349849 92:-0.039980698 93:-0.048016568 94:-0.045406955 95:0.051849474 96:-0.030882763 97:0.06999255 98:-0.025462634 99:-0.12862667 100:0.036291314 101:-0.11933826 102:0.00020249035 103:0.015072447 104:-0.055668704 105:0.044813887 106:-0.098134548 107:0.022651576 108:-0.098172178 109:-0.0029123166 110:-0.0038606895 111:-0.066608953 112:0.0037060788 113:-0.048281034 114:-0.013621047 115:0.085938161 116:-0.12438404 117:0.062341445 118:0.0066600367 119:-0.086264002 120:0.041532177 121:-0.014201514 122:-0.0062195913 123:-0.059439579 124:-0.026112616 125:0.011142954 126:0.011329282 127:0.083179647 128:0.0090116189 129:-0.017483086 130:0.014212881 131:-0.04713655 132:-0.026655673 133:-0.065074281 134:0.0018900766 135:-0.0087436208 136:-0.024901437 137:-0.029011291 138:-0.006211348 139:-0.022586282 140:-0.020358592 141:0.022298778 142:-0.0064421412 143:-0.010686266 144:0.064144676 145:0.022419864 146:0.0032834089 147:-0.0033838415 148:0.063420159 149:0.055300834 150:0.083572551 151:0.014890409 152:-0.022682093 153:-0.015678338 154:0.024624654 155:0.046854122 156:0.010409351 157:0.0052507412 158:0.0060072492 159:-0.0019941875 160:0.018197643 161:-0.013629036 162:0.035365934 163:-0.012373807 164:-0.028128114 165:0.032511724 166:-0.010873268 167:0.0055591249 168:-0.020915016 169:-0.037790595 170:-0.037424034 171:-0.019939583 172:-0.0028304532 173:0.0010292815 174:0.043220808 175:0.0002426208 176:-0.022739303 177:-0.0098044659 178:0.0021616627 179:0.010868307 180:-0.013410778 181:-0.0052596066 182:0.043724547 183:-0.017579277 184:0.011485017 185:0.021557121 186:-0.015329009 187:-0.012121618 188:-0.012852765 189:-0.011231095 190:-0.037028594 191:0.013112948 192:0.031513142 193:0.012197436 194:-0.0021038783 195:-0.014277567 196:-0.0083589174 197:0.025292842 198:0.0053017744 199:0.0060576642 200:-0.0012040491 
1 1:0.24828329 2:-0.75889924 3:-0.10938153 4:-0.384654 5:0.26627253 6:-0.14009768 7:0.038434658 8:-0.13734405 9:0.0006542628 10:0.040186114 11:0.011833883 12:-0.042222523 13:0.0012554623 14:0.074359996 15:-0.089331146 16:0.013453127 17:0.039413966 18:-0.0019352539 19:-0.022781347 20:-0.041283847 21:-0.02656289 22:0.01657975 23:-0.033491976 24:-0.016583958 25:-0.0053169224 26:0.0087238426 27:0.021944778 28:-0.059914489 29:0.022795455 30:-0.029898506 31:0.032481449 32:-0.043802057 33:-0.021474842 34:-0.031991089 35:-0.017424472 36:-0.013559478 37:-0.035281378 38:-0.016841695 39:0.012139045 40:-0.030665297 41:-0.014557498 42:-0.0082034825 43:-0.056149756 44:0.014846431 45:0.0288456 46:0.026789631 47:-0.020631489 48:-0.037935954 49:0.021598689 50:-0.04190859 51:0.012829918 52:-0.029079808 53:0.0087527051 54:0.029893021 55:0.030043949 56:0.0020929509 57:0.069639071 58:-0.0018323232 59:0.042285979 60:-0.014625504 61:-0.0096249749 62:-0.01009231 63:0.032006474 64:0.011930546 65:-0.022084382 66:-0.0070807263 67:0.019036623 68:-0.012466432 69:-0.0050181713 70:0.0542598 71:0.0073818792 72:0.0058118003 73:0.052011099 74:0.002146866 75:0.00011382972 76:0.018445817 77:0.026971912 78:0.029419453 79:-0.02509933 80:0.01331557 81:-0.0035130936 82:0.0074242311 83:-0.0039879559 84:-0.00020239409 85:-0.0038874188 86:-0.0056807813 87:0.0047570317 88:0.01603025 89:-0.026058974 90:-0.025277847 91:-0.011034948 92:0.0086960322 93:0.017892844 94:-0.0082517629 95:-0.00090904547 96:-0.021137814 97:-0.011907261 98:0.018755484 99:0.012929255 100:-0.010946187 101:0.0079019653 102:-0.010003628 103:-0.015862994 104:-0.0088353653 105:-0.0046351168 106:0.021373369 107:-0.024211633 108:0.0098409698 109:-0.028441974 110:-0.011297614 111:0.007115767 112:0.011097384 113:0.0052230955 114:0.022602346 115:-0.0005742957 116:0.0018392261 117:-0.012975743 118:0.013618211 119:0.014292421 120:0.019677983 121:-0.016033546 122:0.013457273 123:0.0016001706 124:0.032510504 125:0.015902892 126:0.0029092021 127:-0.023888463 128:0.0042418898 129:-0.00024931013 130:-0.0073512888 131:0.018357903 132:-0.0046550151 133:-0.024752041 134:-0.016910349 135:-0.0011875054 136:0.021121055 137:-0.0013790333 138:0.022379011 139:0.0012156092 140:0.010840033 141:-0.030187279 142:-0.021585256 143:-0.021537811 144:-0.01898517 145:0.0069628971 146:-0.0083879911 147:0.0089661975 148:-0.00575026 149:0.01212809 150:0.014380562 151:-0.0072852058 152:0.003820847 153:-0.0034125439 154:-0.0019105805 155:0.02973663 156:-0.0014396632 157:-0.026740069 158:-0.012479364 159:0.0062014592 160:0.0066466497 161:0.0074549582 162:0.0056563779 163:-0.020193045 164:-0.039514847 165:0.0091661936 166:0.013091235 167:0.00097558557 168:0.00084944338 169:0.0082562508 170:-0.0043275788 171:0.0056526753 172:0.011446773 173:-0.016097639 174:0.026254712 175:-0.018994025 176:-0.010160122 177:0.017194113 178:0.015300018 179:-0.02109448 180:-0.0040349074 181:-0.011833933 182:-0.004924994 183:-0.0088484739 184:-0.025396067 185:0.015981993 186:-0.0091229229 187:-0.00079951686 188:-0.00056824509 189:-0.0042540152 190:0.019971634 191:-0.0030369652 192:0.024206085 193:-0.013855516 194:-0.004621053 195:-0.008063841 196:-0.010446011 197:0.012626713 198:-0.0018937721 199:0.0098575049 200:-0.0072860915 
1 1:0.77065482 2:-0.28691753 3:0.16178628 4:-0.22146407 5:-0.1341786 6:0.055984927 7:-0.092195787 8:0.11336358 9:-0.22765695 10:0.1207223 11:0.029634068 12:-0.0039150226 13:0.039599654 14:0.00089770375 15:0.10961691 16:0.19859547 17:0.032708326 18:-0.0059013788 19:-0.0022048869 20:0.0058370101 21:0.04952562 22:-0.10019603 23:0.0092988487 24:-0.00099770703 25:0.0043157109 26:-0.014252514 27:0.071249903 28:0.046832643 29:-0.074909722 30:0.043472195 31:-0.040687655 32:0.03397334 33:-0.026773773 34:-0.012800626 35:-0.049415537 36:-0.011149918 37:0.015745199 38:-0.059853719 39:-0.049821311 40:0.0041221632 41:0.055412072 42:0.01563306 43:0.002928479 44:0.04065387 45:-0.050804811 46:-0.029130095 47:0.024221737 48:0.053486595 49:-0.018504979 50:-0.072944535 51:0.022286971 52:-0.012061678 53:-0.0085282283 54:-0.027723927 55:-0.015820725 56:-0.012888776 57:-0.021270201 58:-0.02546934 59:0.0034348137 60:0.011585571 61:0.013041159 62:0.010491163 63:-0.048470198 64:-0.002016187 65:-0.050088133 66:-0.011136162 67:0.0050671434 68:-0.001646128 69:0.013281969 70:0.0033123362 71:0.0063252321 72:-0.0072713065 73:-0.0051030587 74:-0.034199796 75:0.018726092 76:-0.028170861 77:0.030803928 78:-0.01119989 79:-0.023235659 80:0.00073032901 81:-0.014169624 82:0.0078846575 83:-0.012110054 84:-0.016250754 85:-0.00042272146 86:-0.0044599163 87:-0.0012361395 88:-0.029421582 89:-0.0042071491 90:0.00092795353 91:0.0079286011 92:-0.022064809 93:-0.014014066 94:-0.0223297 95:-0.020141747 96:0.0030648319 97:-0.0026668138 98:0.0069233741 99:-0.011925546 100:-0.018436082 101:-0.0024208923 102:-0.016922202 103:0.0043613527 104:0.011818361 105:0.0056496338 106:0.016368745 107:0.0050060453 108:0.01417485 109:-0.0031958221 110:-0.0037280058 111:0.010200793 112:-0.015682557 113:-0.0081021729 114:0.025779629 115:0.0067414094 116:0.014265355 117:0.014017755 118:-0.011082577 119:-0.011191904 120:-0.017397213 121:0.0056422695 122:-0.0092807406 123:-0.0085999049 124:0.0076111064 125:-0.0031996526 126:0.015579157 127:0.017165299 128:0.0065571347 129:-0.0037459898 130:0.0032606657 131:0.0063612427 132:-0.019233069 133:0.0076114672 134:0.016279678 135:-0.00055681358 136:-0.0037408313 137:-0.015607203 138:-0.0071091937 139:-0.0080442603 140:-0.0064235301 141:0.011396898 142:-0.011566795 143:0.0087492234 144:-0.0063900718 145:-0.021293076 146:0.0021154701 147:-0.015851148 148:-0.0098308686 149:-0.012897868 150:-0.012127475 151:0.011765068 152:-0.0034186177 153:-0.00073282106 154:0.0043685345 155:0.013555583 156:0.0013789901 157:0.0072959727 158:-0.010294528 159:-0.010058768 160:-0.0026664541 161:0.013456013 162:0.011969368 163:-0.010950579 164:-0.013790549 165:0.0014353451 166:0.0090204856 167:0.010179414 168:0.01746022 169:-0.0062146769 170:-0.012169874 171:-0.01209925 172:-0.00075510132 173:-0.013063858 174:0.00047464251 175:0.0045104798 176:-0.0072628819 177:0.0046767682 178:0.0026079233 179:0.0090244978 180:-0.022708791 181:-0.0022324656 182:-0.0033377733 183:-0.0059581877 184:-0.0097242435 185:0.0017259307 186:0.0015832809 187:-6.1934068e-05 188:-0.0090209565 189:-0.011848991 190:-0.0044742259 191:0.0048158246 192:-0.012308074 193:-0.0092092946 194:0.0054336329 195:-0.0067779641 196:0.0048331937 197:-0.010369541 198:0.00099766421 199:0.0076522408 200:-0.0021637998 
0.47257639946983088 1:0.13894078 2:-0.60383495 3:-0.30382324 4:0.19583014 5:-0.31244126 6:-0.021988163 7:0.016860476 8:-0.21672256 9:0.030340404 10:0.18818512 11:0.04014903 12:-0.01744171 13:0.15125382 14:-0.021456002 15:0.019715887 16:-0.23786018 17:-0.26927812 18:0.023478087 19:0.0018884688 20:-0.099503467 21:0.025567958 22:0.076067644 23:-0.092486657 24:-0.054527232 25:0.046422323 26:0.0094387441 27:0.057086948 28:-0.014398307 29:-0.0033670149 30:0.014818405 31:0.01674767 32:0.022707371 33:0.055793103 34:-0.066473066 35:0.056189145 36:-0.028740587 37:-0.11318741 38:0.040243337 39:0.00056831775 40:0.090558062 41:-0.010862582 42:-0.019444179 43:-0.0834189 44:-0.025219853 45:0.01752635 46:0.059792824 47:-0.022855561 48:-0.057096685 49:0.033193485 50:-0.03512164 51:-0.018329151 52:-0.078446098 53:-0.057560399 54:0.039624999 55:-0.0053912075 56:0.035235726 57:0.012258404 58:-0.053216662 59:0.010732066 60:-0.035979201 61:0.0047495193 62:0.056529293 63:-0.018780268 64:-0.025500191 65:-0.0017517482 66:0.011835754 67:-0.011031238 68:0.0026145228 69:-0.037823022 70:-0.010116232 71:0.019736183 72:0.030807112 73:-0.012491036 74:0.032987283 75:0.029036432 76:0.033979815 77:-0.0037302592 78:-0.0082287888 79:0.0033300902 80:0.016689138 81:0.028413358 82:-0.0049348972 83:-0.0042604669 84:-0.057680899 85:-0.05619627 86:-0.028521572 87:0.019596379 88:0.016419136 89:-0.025174771 90:-0.007795574 91:8.3846678e-06 92:-0.015336192 93:0.0013898653 94:-0.016266039 95:0.0069164489 96:-0.013689516 97:-0.005745824 98:-0.0071227171 99:0.031554211 100:0.0065986262 101:0.00050858787 102:0.015124935 103:-0.010531062 104:0.026333262 105:0.0022508214 106:0.01923276 107:-0.014574287 108:0.00074498885 109:-0.002854828 110:0.0048170681 111:0.020861372 112:0.009675383 113:-0.0066176043 114:0.0074927144 115:0.0070025904 116:-0.0064059712 117:-0.0068842197 118:-0.018799472 119:-0.0070899834 120:-0.027917025 121:0.013430129 122:0.0012656715 123:-0.022479158 124:-0.030581969 125:0.030807421 126:0.0039959995 127:-0.011933079 128:0.0081122172 129:-0.024005636 130:-0.0088625402 131:-0.0148696 132:0.013703505 133:0.0035823727 134:0.0086654051 135:-0.0023603979 136:-0.0092891287 137:0.03111663 138:-0.0047711065 139:-0.0099134585 140:-0.0097708739 141:-0.0048054198 142:0.01624886 143:0.0096005484 144:0.014976024 145:0.012594915 146:0.019239602 147:0.0046556031 148:-0.019708588 149:-0.012352534 150:0.0016925507 151:-0.0074190189 152:0.0025292263 153:0.010038723 154:-0.014158956 155:0.02867769 156:0.020132472 157:0.033333573 158:-0.0068616987 159:0.0031562082 160:-0.0057964541 161:-0.025793464 162:-0.0031392072 163:-0.00031771769 164:0.022204131 165:-0.02883205 166:-0.015126951 167:0.00016735239 168:0.012681049 169:-0.021258396 170:0.012337943 171:-0.017017454 172:0.0069729556 173:-0.020799618 174:0.00039166716 175:-0.0045137232 176:-0.0094931524 177:-0.0055409775 178:-0.02021192 179:0.0099901324 180:-0.010753803 181:-0.0021910596 182:0.020701634 183:0.00084370054 184:-0.0039612664 185:-0.0067673586 186:-0.0010213098 187:-0.012555625 188:0.0033878725 189:0.026234774 190:0.019952948 191:0.015231535 192:-0.0026865449 193:0.0072954329 194:-0.02955133 195:0.008878177 196:0.027493941 197:-0.0099665388 198:-0.010355663 199:0.020667886 200:-0.00048143502 
0.89841560185205072 1:-0.047134904 2:0.34630623 3:-0.54247998 4:-0.11892617 5:-0.10607063 6:-0.03780801 7:0.31152084 8:0.24154463 9:-0.23507135 10:0.21643777 11:0.0084086543 12:-0.15398121 13:-0.062427384 14:0.22376348 15:-0.031182802 16:0.26419597 17:0.028207604 18:-0.11976784 19:0.043536873 20:-0.015589404 21:-0.027639351 22:0.067189977 23:-0.0041662084 24:-0.027342443 25:-0.013699773 26:0.026249205 27:0.093309191 28:-0.07191625 29:0.024229371 30:-0.0040451982 31:-0.07553907 32:0.036303323 33:0.075081643 34:-0.049617947 35:-0.06629355 36:-0.0086335973 37:0.050512324 38:-0.0001693211 39:-0.022923941 40:-0.0020881763 41:0.036812347 42:0.026256783 43:0.09697026 44:-0.017500508 45:-0.048238617 46:-0.035057313 47:-0.011625394 48:0.005657576 49:0.059108708 50:-0.024358888 51:0.013169643 52:0.0018363236 53:0.091092243 54:0.019271575 55:0.0038713333 56:-0.026598379 57:0.00074593385 58:-0.0056277943 59:0.0042183012 60:0.026966498 61:-0.024607093 62:-0.021031116 63:-0.028812118 64:-0.018594797 65:0.063329421 66:0.025792855 67:0.022883723 68:0.030540799 69:-0.030430679 70:0.013058823 71:0.043961138 72:0.025117057 73:-0.0044722232 74:-0.033828693 75:-0.027365949 76:-0.0029069415 77:0.005617333 78:-0.037846684 79:0.0049991437 80:0.0064659133 81:-0.021305038 82:0.00075820145 83:0.0036510616 84:0.00037569672 85:0.0015576349 86:-0.047937704 87:-0.028137279 88:0.031733985 89:0.0054537486 90:0.0084969165 91:-0.031002075 92:-0.031680731 93:0.012537325 94:0.0080597712 95:0.0026751132 96:0.025445409 97:0.02982334 98:0.0009758909 99:0.034692125 100:0.054234936 101:-0.010721484 102:0.052504983 103:-0.033430558 104:-0.0073632391 105:-0.030906579 106:0.012071828 107:0.0060985727 108:0.0054721482 109:0.0042365215 110:-0.014763197 111:0.019529597 112:0.0018817635 113:-0.023071919 114:0.032583626 115:-0.0065034915 116:-0.025154726 117:0.047920556 118:0.02468324 119:-0.01479565 120:-0.015831164 121:0.013726886 122:0.0092794766 123:0.0065148941 124:-0.015045047 125:-0.015096993 126:-0.026435652 127:0.0070201646 128:-0.034826764 129:0.033969643 130:-0.0023220536 131:0.017460103 132:-0.0017383311 133:-0.0085647169 134:-0.020989034 135:-0.00057371539 136:0.01524543 137:0.023087779 138:0.013012282 139:-0.0023568617 140:0.018128301 141:-0.0075987629 142:0.015181579 143:0.0021421499 144:-0.030752001 145:0.0010701411 146:-0.0040806583 147:-0.016328305 148:-0.012827723 149:-0.0070733346 150:-0.017076038 151:0.031785676 152:-0.037881847 153:-0.027948236 154:-0.0098903071 155:0.0095494802 156:-0.0014824081 157:-0.0049310016 158:0.022224308 159:-0.0035995295 160:-0.024417245 161:-0.00697811 162:0.021986461 163:-0.021586762 164:-0.0091706989 165:-0.0053855674 166:0.0013123131 167:0.0050021473 168:0.013916182 169:-0.0019353754 170:-0.0026527823 171:-0.014713779 172:-0.0075312608 173:0.011295417 174:-0.012232075 175:0.01929062 176:-0.0019474836 177:-0.0090121023 178:0.023692135 179:-0.014994039 180:-0.012998061 181:0.0034180577 182:0.014405836 183:0.010579763 184:0.0033023479 185:-0.0087484907 186:0.0092224727 187:0.0069017045 188:-0.0075885327 189:0.024809681 190:0.014209284 191:0.013756448 192:0.010487389 193:-0.018617725 194:0.0043538291 195:0.0089751245 196:0.012297078 197:-0.0074838979 198:-0.011010139 199:0.013345586 200:-0.037855038 
0.068741855425845766 1:-0.14784992 2:-0.76226408 3:-0.2068245 4:0.079885476 5:-0.22585904 6:-0.056885784 7:0.038009078 8:0.090566519 9:0.084880197 10:0.05992803 11:-0.046683554 12:0.10984988 13:0.18451929 14:0.021184951 15:-0.043671633 16:-0.10584133 17:0.035433582 18:0.029284246 19:-0.14752835 20:-0.049833963 21:-0.0098586067 22:-0.044922438 23:-0.11462102 24:-0.010249004 25:0.04358135 26:-0.054113715 27:-0.048861052 28:-0.0033552921 29:-0.10680437 30:0.17459804 31:-0.011528222 32:-0.061463805 33:-0.034370003 34:0.011113166 35:0.021044708 36:0.017750291 37:0.031999486 38:0.050161196 39:0.045016781 40:0.016649304 41:-0.0015861359 42:0.0094068669 43:0.042874949 44:-0.021797967 45:-0.063058385 46:0.076722627 47:-0.018299283 48:-0.017537133 49:-0.02751331 50:0.027974182 51:-0.047946901 52:-0.026976085 53:0.032751461 54:0.039082607 55:-0.021397933 56:-0.016870544 57:-0.022756741 58:-0.0014906254 59:-0.020573928 60:0.01259275 61:0.051360279 62:0.041447524 63:-0.020904317 64:-0.013475865 65:0.03769589 66:0.04492803 67:-0.0081750885 68:0.030827767 69:-0.040399119 70:-0.016865541 71:-0.025830873 72:-0.03839375 73:0.022686604 74:0.028814933 75:0.043906581 76:-0.012340681 77:-0.0054031984 78:0.017812429 79:0.022315047 80:0.020632187 81:0.0035200421 82:-0.060721648 83:-0.035731764 84:0.066119724 85:-0.04087506 86:0.041247787 87:0.026053624 88:-0.034872181 89:0.0013423658 90:0.030719716 91:0.048177195 92:-0.013968397 93:0.015506877 94:-0.00078614585 95:0.046217694 96:-0.038239758 97:-0.054576154 98:-0.031892847 99:-0.0042412947 100:-0.012364823 101:0.012254565 102:-0.028966775 103:0.021857942 104:-0.020389149 105:-0.0074614891 106:-0.022127021 107:0.028565016 108:-0.023917721 109:0.026622005 110:-0.0056282503 111:-0.020513807 112:0.021219451 113:-0.0056316599 114:0.0048246496 115:-0.063038864 116:-0.011148331 117:0.0059714829 118:0.012243313 119:0.0422779 120:-0.00055592139 121:0.001544258 122:0.0037277718 123:0.0018577007 124:-0.0016197445 125:-0.030550789 126:0.044127432 127:0.03537904 128:-0.067125799 129:0.025587289 130:0.016697561 131:0.00094006847 132:-0.0061974623 133:-0.012092834 134:-0.00087846394 135:-0.0083156972 136:-0.016705467 137:0.007384423 138:-0.029347248 139:0.027130017 140:-0.014321016 141:-0.013968487 142:-0.01416011 143:-0.0098012412 144:-0.0021173886 145:0.0093958111 146:-0.017678238 147:0.039277193 148:-0.030008024 149:0.027431792 150:0.0054865792 151:-0.020605312 152:0.0050321064 153:0.0063494223 154:0.021840321 155:0.026236467 156:-0.042637011 157:-0.017594167 158:-0.005187363 159:-0.0036604877 160:0.02231554 161:0.019699441 162:0.00055376933 163:0.030907895 164:-0.010410247 165:0.014375278 166:0.0070927231 167:-0.00091405622 168:-0.022516848 169:-0.012014913 170:-0.011435591 171:-0.025480962 172:0.0083598273 173:0.0037758533 174:0.0074687577 175:-0.0020189419 176:0.020123189 177:0.017503622 178:-0.0096114967 179:0.0085984742 180:0.0080358213 181:-0.026652448 182:0.027056641 183:-0.0070553237 184:0.0011509526 185:0.022852009 186:0.0085312156 187:0.015041242 188:0.012378671 189:0.01309842 190:0.017606893 191:-0.029323736 192:-0.011791591 193:-0.0060533997 194:-0.0058391872 195:0.012128957 196:-0.008171447 197:-0.020084856 198:0.032714805 199:0.018491865 200:-0.017057842 
1 1:0.35965708 2:0.024349961 3:0.28509726 4:0.33912969 5:0.065135285 6:0.28248472 7:-0.047516186 8:0.32806255 9:0.015659548 10:-0.078472054 11:0.049315444 12:-0.036129833 13:-0.10745237 14:0.083928691 15:0.077744985 16:0.037793698 17:0.19021399 18:0.14579414 19:-0.063268144 20:-0.10178917 21:0.015390815 22:-0.10965776 23:-0.042967897 24:-0.10283149 25:-0.067054309 26:0.070344842 27:0.010303105 28:-0.0063395846 29:0.062075707 30:0.048268928 31:-0.037246199 32:-0.11290725 33:0.028941341 34:0.13027906 35:-0.021215854 36:0.031840572 37:-0.032843089 38:-0.019504504 39:-0.0035944793 40:0.0070542497 41:-0.025657565 42:0.11141371 43:0.0065283283 44:-0.023382697 45:0.025993762 46:-0.004984021 47:-0.15100835 48:-0.14298865 49:-0.00025103832 50:0.039012635 51:-0.09907956 52:0.059452541 53:0.010673156 54:0.021369552 55:-0.019377031 56:0.037977338 57:-0.07393489 58:-0.026999706 59:-0.0071241914 60:0.090535758 61:0.085892762 62:-0.041318982 63:-0.020263363 64:-0.17321689 65:0.015730717 66:0.022429251 67:-0.010076904 68:0.034171444 69:0.038685145 70:0.034304512 71:-0.0048147214 72:-0.056689679 73:-0.014770962 74:0.043912665 75:-0.067307025 76:0.03939954 77:0.035545024 78:-0.039896339 79:-0.03528189 80:-0.026468074 81:0.10284244 82:-0.03315204 83:-0.0035660592 84:0.050879263 85:-0.003674446 86:0.10641231 87:-0.075435122 88:-0.032000768 89:-0.05643138 90:-0.036996546 91:0.076276017 92:-0.042700733 93:-0.071630712 94:0.040059474 95:0.0090962843 96:0.074611186 97:-0.0400225 98:-0.012063613 99:-0.029089123 100:0.0013192856 101:0.0010106373 102:0.011224102 103:-0.017544268 104:-0.065953564 105:0.0047294864 106:0.044154229 107:0.039520897 108:-0.0085091932 109:0.0036525974 110:-0.031176495 111:-0.0093080061 112:-0.00057192213 113:-0.048603055 114:-0.0042482259 115:0.014592203 116:-0.048578882 117:-0.0057355846 118:-0.034991859 119:0.027746955 120:0.023129794 121:0.044786709 122:-0.00079707734 123:-0.026973279 124:-0.013596488 125:0.024598384 126:0.025293829 127:-0.021452204 128:-0.025997811 129:-0.055114421 130:-0.045345615 131:-0.010354697 132:-0.032581726 133:0.030639405 134:0.012079101 135:0.0084359546 136:-0.012275596 137:-0.023526537 138:0.023657595 139:0.0047311658 140:-0.023111165 141:-0.065539214 142:-0.033686451 143:0.012709036 144:0.0031062177 145:-0.00059836465 146:-0.020259222 147:-0.0027255021 148:-0.031765055 149:0.011804438 150:0.014267614 151:0.0074735188 152:-0.017907847 153:0.037495 154:-0.021718765 155:-0.032090346 156:-0.010193466 157:0.0061978976 158:-0.043300291 159:0.022858459 160:-0.10297407 161:-0.0090616326 162:0.014947575 163:-0.012906072 164:0.036329273 165:-0.067626258 166:0.015220627 167:0.014398061 168:0.057518722 169:-0.0029880886 170:0.014015565 171:-0.0066373934 172:-0.016965232 173:-0.047194144 174:-0.027797207 175:-0.06143997 176:0.0014904208 177:0.023671976 178:-0.017025487 179:0.070997413 180:-0.023441342 181:0.0031635383 182:0.030161496 183:0.0023962222 184:0.0015398658 185:-0.028768306 186:-0.0056065977 187:-0.0076683488 188:0.00097685082 189:0.028956497 190:0.011570966 191:0.0041039791 192:0.0037651112 193:-0.0096770963 194:0.0056410474 195:-0.024151938 196:-0.037137378 197:0.028737765 198:0.040559768 199:0.017155236 200:0.016872757 
